{"learner":{"attributes":{"scikit_learn":"{\"_estimator_type\": \"regressor\"}"},"feature_names":["pm25_rolling_3d_mean","temperature_2m_mean","precipitation_sum","wind_speed_10m_max","wind_direction_10m_dominant"],"feature_types":["float","float","float","float","float"],"gradient_booster":{"model":{"gbtree_model_param":{"num_parallel_tree":"1","num_trees":"100"},"iteration_indptr":[0,1,2,3,4,5,6,7,8,9,10,11,12,13,14,15,16,17,18,19,20,21,22,23,24,25,26,27,28,29,30,31,32,33,34,35,36,37,38,39,40,41,42,43,44,45,46,47,48,49,50,51,52,53,54,55,56,57,58,59,60,61,62,63,64,65,66,67,68,69,70,71,72,73,74,75,76,77,78,79,80,81,82,83,84,85,86,87,88,89,90,91,92,93,94,95,96,97,98,99,100],"tree_info":[0,0,0,0,0,0,0,0,0,0,0,0,0,0,0,0,0,0,0,0,0,0,0,0,0,0,0,0,0,0,0,0,0,0,0,0,0,0,0,0,0,0,0,0,0,0,0,0,0,0,0,0,0,0,0,0,0,0,0,0,0,0,0,0,0,0,0,0,0,0,0,0,0,0,0,0,0,0,0,0,0,0,0,0,0,0,0,0,0,0,0,0,0,0,0,0,0,0,0,0],"trees":[{"base_weights":[2.896738E-8,-5.436578E-1,4.771433E0,-9.216308E-1,1.2099721E0,7.163086E0,2.1018186E0,-1.1198572E0,-2.6176882E-1,2.0834332E0,3.1523857E-1,5.197997E0,9.372889E0,1.6316642E0,3.6738546E0,-1.1850525E0,-8.7812585E-1,-1.6308738E-2,-6.247527E-1,1.0769985E0,2.6077626E0,1.0286859E0,-1.5041865E-2,6.2886257E0,3.1385598E0,5.0150375E0,1.0898024E1,2.3368158E0,4.7432962E-1,5.0781846E0,2.1908708E0,-1.0981902E0,-3.9438018E-1,-7.607773E-1,-3.1999254E-1,-5.5540496E-1,1.569507E-1,-3.0262168E-2,-7.21638E-1,8.455041E-1,2.3782494E0,5.126675E0,2.1283634E0,5.733878E-1,1.7180778E0,4.910598E-1,-1.463015E-1,7.3330364E0,2.108213E0,2.6004307E0,4.6409683E0,5.9671617E0,1.3809682E0,1.4860422E1,7.6133285E0,3.0964978E0,1.0374897E0,2.055305E0,2.656394E-1,8.9290994E-1,1.8493099E0,1.8459155E-1,2.472629E0,-3.3791715E-1,-2.7764586E-1,-2.4271508E-1,-1.044494E-1,-2.3439938E-1,-4.640357E-3,6.8647486E-1,1.2559926E-2,6.5938376E-2,-1.3638231E-1,-2.2216552E-1,4.8591558E-2,9.74881E-2,3.310636E-1,2.2659154E-1,8.6290985E-1,2.2298944E-1,2.2437887E0,3.0886042E-1,8.563791E-1,4.6324253E-2,5.424749E-1,7.901221E-1,1.834554E-1,-8.840846E-2,1.7842135E-1,-7.017722E-2,1.3924858E-1,1.4083521E0,2.6066132E0,1.5971937E0,2.6647484E-1,8.006131E-1,2.2619367E-1,4.0619364E-1,1.5855916E0,5.306937E-1,1.8711221E0,5.0859153E-1,6.569365E-2,1.2926936E0,4.6141887E0,1.0917487E0,3.2478485E0,7.602878E-1,1.9685916E0,7.999099E-1,9.935753E-2,1.0619367E-1,8.1869364E-1,-1.9511903E-2,2.3044859E-1,2.1869367E-1,7.798389E-1],"categories":[],"categories_nodes":[],"categories_segments":[],"categories_sizes":[],"default_left":[0,0,0,0,0,0,0,0,0,0,0,0,0,0,0,0,0,0,0,0,0,0,0,0,0,0,0,0,0,0,0,0,0,0,0,0,0,0,0,0,0,0,0,0,0,0,0,0,0,0,0,0,0,0,0,0,0,0,0,0,0,0,0,0,0,0,0,0,0,0,0,0,0,0,0,0,0,0,0,0,0,0,0,0,0,0,0,0,0,0,0,0,0,0,0,0,0,0,0,0,0,0,0,0,0,0,0,0,0,0,0,0,0,0,0,0,0],"id":0,"left_children":[1,3,5,7,9,11,13,15,17,19,21,23,25,27,29,31,33,35,37,39,41,43,45,47,49,51,53,55,57,59,61,63,-1,65,-1,67,69,71,73,75,77,79,81,83,85,87,89,91,93,95,97,99,101,103,105,107,109,111,113,-1,-1,-1,115,-1,-1,-1,-1,-1,-1,-1,-1,-1,-1,-1,-1,-1,-1,-1,-1,-1,-1,-1,-1,-1,-1,-1,-1,-1,-1,-1,-1,-1,-1,-1,-1,-1,-1,-1,-1,-1,-1,-1,-1,-1,-1,-1,-1,-1,-1,-1,-1,-1,-1,-1,-1,-1,-1],"loss_changes":[4.539547E3,1.0424128E3,1.127822E3,1.6883386E2,2.173859E2,3.594707E2,5.7568085E1,1.4624634E1,2.6719225E1,7.1597595E1,3.2769115E1,9.705908E1,2.3113745E2,5.438614E1,2.8443726E1,7.333496E0,3.9447632E0,1.6899803E1,6.9474525E0,1.30508E1,1.0018451E2,1.2825539E1,6.449192E0,1.2862048E2,4.1012726E0,3.674063E1,2.9033594E2,3.8244553E1,8.362251E0,2.1992035E0,3.3617935E0,1.2612305E0,0E0,2.4271698E0,0E0,5.355295E0,3.350742E1,2.0099087E0,1.8580246E0,5.55155E0,3.486374E0,1.3881454E2,6.0103607E1,1.4207268E1,1.5614418E1,1.8045759E0,4.227336E0,5.2212524E1,2.6655918E1,1.311264E-1,1.3155289E0,2.9812622E-1,1.0897884E0,5.0810547E0,2.0320032E2,3.4026016E1,1.867495E1,2.472414E0,4.2043033E0,0E0,0E0,0E0,9.543228E-2,0E0,0E0,0E0,0E0,0E0,0E0,0E0,0E0,0E0,0E0,0E0,0E0,0E0,0E0,0E0,0E0,0E0,0E0,0E0,0E0,0E0,0E0,0E0,0E0,0E0,0E0,0E0,0E0,0E0,0E0,0E0,0E0,0E0,0E0,0E0,0E0,0E0,0E0,0E0,0E0,0E0,0E0,0E0,0E0,0E0,0E0,0E0,0E0,0E0,0E0,0E0,0E0,0E0,0E0],"parents":[2147483647,0,0,1,1,2,2,3,3,4,4,5,5,6,6,7,7,8,8,9,9,10,10,11,11,12,12,13,13,14,14,15,15,16,16,17,17,18,18,19,19,20,20,21,21,22,22,23,23,24,24,25,25,26,26,27,27,28,28,29,29,30,30,31,31,33,33,35,35,36,36,37,37,38,38,39,39,40,40,41,41,42,42,43,43,44,44,45,45,46,46,47,47,48,48,49,49,50,50,51,51,52,52,53,53,54,54,55,55,56,56,57,57,58,58,62,62],"right_children":[2,4,6,8,10,12,14,16,18,20,22,24,26,28,30,32,34,36,38,40,42,44,46,48,50,52,54,56,58,60,62,64,-1,66,-1,68,70,72,74,76,78,80,82,84,86,88,90,92,94,96,98,100,102,104,106,108,110,112,114,-1,-1,-1,116,-1,-1,-1,-1,-1,-1,-1,-1,-1,-1,-1,-1,-1,-1,-1,-1,-1,-1,-1,-1,-1,-1,-1,-1,-1,-1,-1,-1,-1,-1,-1,-1,-1,-1,-1,-1,-1,-1,-1,-1,-1,-1,-1,-1,-1,-1,-1,-1,-1,-1,-1,-1,-1,-1],"split_conditions":[3.6733334E0,1.5566666E0,1.9840375E2,7.3333335E-1,2.2184917E2,6.9700003E0,1.698075E1,4.6666667E-1,2.538354E2,9.4969635E1,1.5629971E1,1.5428666E1,4.8494997E0,2.5258282E2,4.9E0,2.4959866E2,2.3725418E2,1.3722565E1,-3.2859163E0,3.2666667E0,7.8283316E-1,2E-1,2.4164693E2,1.8128822E2,1.7379665E2,2.8E0,9.439082E0,2.0808498E1,9.511088E0,4.2833333E0,1E-1,2.167786E1,-3.9438018E-1,1.7734917E1,-3.1999254E-1,1.1566666E0,1.3910169E1,1.5408671E1,2.0278667E1,2.02E0,1E-1,-1.60675E0,1.9666667E0,1.698075E1,9.655749E0,1.6899999E0,3.3853604E2,1.4621815E2,1.61198E1,5.66E0,1.2287555E1,1.7807504E0,2.1928255E1,5.259916E0,1.3476583E1,2.4959866E2,2E-1,3.8E0,6.1724167E0,8.9290994E-1,1.8493099E0,1.8459155E-1,5.0233335E0,-3.3791715E-1,-2.7764586E-1,-2.4271508E-1,-1.044494E-1,-2.3439938E-1,-4.640357E-3,6.8647486E-1,1.2559926E-2,6.5938376E-2,-1.3638231E-1,-2.2216552E-1,4.8591558E-2,9.74881E-2,3.310636E-1,2.2659154E-1,8.6290985E-1,2.2298944E-1,2.2437887E0,3.0886042E-1,8.563791E-1,4.6324253E-2,5.424749E-1,7.901221E-1,1.834554E-1,-8.840846E-2,1.7842135E-1,-7.017722E-2,1.3924858E-1,1.4083521E0,2.6066132E0,1.5971937E0,2.6647484E-1,8.006131E-1,2.2619367E-1,4.0619364E-1,1.5855916E0,5.306937E-1,1.8711221E0,5.0859153E-1,6.569365E-2,1.2926936E0,4.6141887E0,1.0917487E0,3.2478485E0,7.602878E-1,1.9685916E0,7.999099E-1,9.935753E-2,1.0619367E-1,8.1869364E-1,-1.9511903E-2,2.3044859E-1,2.1869367E-1,7.798389E-1],"split_indices":[0,0,4,0,4,0,1,0,4,4,3,1,1,4,0,4,4,3,1,0,1,2,4,4,4,2,1,3,3,0,2,3,0,1,0,0,3,3,1,0,2,1,0,1,1,0,4,4,3,0,3,1,3,1,1,4,2,0,1,0,0,0,0,0,0,0,0,0,0,0,0,0,0,0,0,0,0,0,0,0,0,0,0,0,0,0,0,0,0,0,0,0,0,0,0,0,0,0,0,0,0,0,0,0,0,0,0,0,0,0,0,0,0,0,0,0,0],"split_type":[0,0,0,0,0,0,0,0,0,0,0,0,0,0,0,0,0,0,0,0,0,0,0,0,0,0,0,0,0,0,0,0,0,0,0,0,0,0,0,0,0,0,0,0,0,0,0,0,0,0,0,0,0,0,0,0,0,0,0,0,0,0,0,0,0,0,0,0,0,0,0,0,0,0,0,0,0,0,0,0,0,0,0,0,0,0,0,0,0,0,0,0,0,0,0,0,0,0,0,0,0,0,0,0,0,0,0,0,0,0,0,0,0,0,0,0,0],"sum_hessian":[1.748E3,1.57E3,1.78E2,1.292E3,2.78E2,9.3E1,8.5E1,9.93E2,2.99E2,1.4E2,1.38E2,5.1E1,4.2E1,6.7E1,1.8E1,7.79E2,2.14E2,1.79E2,1.2E2,4.9E1,9.1E1,4.3E1,9.5E1,3.2E1,1.9E1,1.2E1,3E1,4.1E1,2.6E1,8E0,1E1,4.72E2,3.07E2,1.35E2,7.9E1,4.3E1,1.36E2,1.7E1,1.03E2,4.3E1,6E0,1.3E1,7.8E1,2.7E1,1.6E1,1.9E1,7.6E1,2.5E1,7E0,1.6E1,3E0,9E0,3E0,1.2E1,1.8E1,2.5E1,1.6E1,2E0,2.4E1,4E0,4E0,2E0,8E0,4.01E2,7.1E1,1.2E2,1.5E1,3E1,1.3E1,6E0,1.3E2,1.1E1,6E0,1.01E2,2E0,1.5E1,2.8E1,2E0,4E0,5E0,8E0,3.2E1,4.6E1,2.1E1,6E0,8E0,8E0,2E0,1.7E1,6.7E1,9E0,1E1,1.5E1,1E0,6E0,1.5E1,1E0,1E0,2E0,1E0,8E0,2E0,1E0,1E0,1.1E1,9E0,9E0,2.3E1,2E0,4E0,1.2E1,1E0,1E0,1.5E1,9E0,1E0,7E0],"tree_param":{"num_deleted":"0","num_feature":"5","num_nodes":"117","size_leaf_vector":"1"}},{"base_weights":[2.0708732E-2,-3.7711653E-1,3.512121E0,-6.3111794E-1,9.485947E-1,5.249477E0,1.5723116E0,-7.7508706E-1,-1.0134001E-1,1.6337246E0,2.6675913E-1,6.009896E0,2.3199303E0,1.2122234E0,2.7782953E0,-8.308316E-1,-6.0355306E-1,2.1289496E0,-1.5733527E-1,7.6455283E-1,2.0003605E0,9.282332E-1,2.7213056E-2,3.4053175E0,7.4336896E0,1.3844789E0,2.6887648E0,1.7221556E0,3.7409833E-1,1.8964766E0,1.4604278E0,-7.262957E-1,-8.902139E-1,-5.465329E-1,-7.214054E-1,5.33896E0,-2.2284645E-1,3.872452E-3,-4.3829006E-1,2.183192E-1,1.3280451E0,4.3549213E0,1.6074374E0,4.6645537E-1,1.7359546E0,2.6234633E-1,-1.4122523E-1,4.264031E0,1.1186969E0,1.17303915E1,5.053036E0,6.7446893E-1,7.218571E-1,1.806979E0,3.3124108E0,1.4267629E0,4.1716948E0,1.7470094E0,1.9438507E-1,1.1500261E0,9.478118E-1,-2.2394706E-1,2.2146791E-2,-2.863772E-1,-2.4776424E-1,-1.702671E-1,1.4440403E-2,-1.4269257E-1,-2.2969796E-1,2.3087225E0,9.3809694E-2,-1.6048151E-1,-3.326668E-3,-6.2917046E-2,8.329912E-2,1.8474787E-2,-1.5191418E-1,-9.6097715E-2,1.2199984E-1,5.0566125E-1,-1.3018067E-1,1.8671918E0,-2.8175205E-1,3.234759E-1,6.953723E-1,3.051096E-1,-1.0529923E-1,1.4021848E-1,7.7258945E-1,2.9626608E-1,3.9158843E-2,9.236016E-2,-1.2584308E-1,1.3354622E0,1.0520168E-1,5.3765213E-1,-5.135777E-2,4.36619E0,2.574255E0,6.9783044E-1,2.1966977E0,2.1468926E-2,3.08734E-1,7.6101676E-2,5.977923E-1,1.0713383E0,2.6401636E-1,8.4041643E-1,2.944961E-1,1.5748733E0,1.407072E-1,9.026462E-2,6.9588965E-1,-1.4024169E-2,1.6822748E-1,3.668076E-1,6.350491E-2],"categories":[],"categories_nodes":[],"categories_segments":[],"categories_sizes":[],"default_left":[0,0,0,0,0,0,0,0,0,0,0,0,0,0,0,0,0,0,0,0,0,0,0,0,0,0,0,0,0,0,0,0,0,0,0,0,0,0,0,0,0,0,0,0,0,0,0,0,0,0,0,0,0,0,0,0,0,0,0,0,0,0,0,0,0,0,0,0,0,0,0,0,0,0,0,0,0,0,0,0,0,0,0,0,0,0,0,0,0,0,0,0,0,0,0,0,0,0,0,0,0,0,0,0,0,0,0,0,0,0,0,0,0,0,0,0,0],"id":1,"left_children":[1,3,5,7,9,11,13,15,17,19,21,23,25,27,29,31,33,35,37,39,41,43,45,47,49,51,53,55,57,59,-1,61,63,65,67,69,71,73,75,77,79,81,83,85,87,89,91,93,95,97,99,-1,101,103,105,107,109,111,113,115,-1,-1,-1,-1,-1,-1,-1,-1,-1,-1,-1,-1,-1,-1,-1,-1,-1,-1,-1,-1,-1,-1,-1,-1,-1,-1,-1,-1,-1,-1,-1,-1,-1,-1,-1,-1,-1,-1,-1,-1,-1,-1,-1,-1,-1,-1,-1,-1,-1,-1,-1,-1,-1,-1,-1,-1,-1],"loss_changes":[2.4306365E3,5.296054E2,5.95001E2,1.005238E2,1.1775206E2,1.9545972E2,3.3978516E1,9.414429E0,3.56776E1,3.8622986E1,2.0256792E1,2.4910645E2,3.5230331E0,2.8418053E1,2.5781387E1,4.1953735E0,1.3394852E0,5.4034805E1,1.2547604E1,1.1714199E1,7.441397E1,1.1871841E1,3.7995672E0,5.020926E1,4.2148682E2,2.95582E0,1.7134476E0,2.4438164E1,6.3221264E0,1.0506977E1,0E0,4.7085876E0,1.253418E0,2.2527351E0,5.1678467E-1,3.3130943E1,3.2450718E-1,1.0409316E1,3.4688778E0,2.2607596E0,1.2699413E1,1.2458461E2,2.6450378E1,1.0708593E1,1.1573406E1,3.6948764E0,7.1269436E0,1.3114807E1,8.125204E0,1.7401855E1,1.8099011E2,0E0,1.1251945E0,1.8016434E0,1.2622604E0,2.1112488E1,1.3501991E1,1.7863207E0,2.2348237E0,4.9121857E-1,0E0,0E0,0E0,0E0,0E0,0E0,0E0,0E0,0E0,0E0,0E0,0E0,0E0,0E0,0E0,0E0,0E0,0E0,0E0,0E0,0E0,0E0,0E0,0E0,0E0,0E0,0E0,0E0,0E0,0E0,0E0,0E0,0E0,0E0,0E0,0E0,0E0,0E0,0E0,0E0,0E0,0E0,0E0,0E0,0E0,0E0,0E0,0E0,0E0,0E0,0E0,0E0,0E0,0E0,0E0,0E0,0E0],"parents":[2147483647,0,0,1,1,2,2,3,3,4,4,5,5,6,6,7,7,8,8,9,9,10,10,11,11,12,12,13,13,14,14,15,15,16,16,17,17,18,18,19,19,20,20,21,21,22,22,23,23,24,24,25,25,26,26,27,27,28,28,29,29,31,31,32,32,33,33,34,34,35,35,36,36,37,37,38,38,39,39,40,40,41,41,42,42,43,43,44,44,45,45,46,46,47,47,48,48,49,49,50,50,52,52,53,53,54,54,55,55,56,56,57,57,58,58,59,59],"right_children":[2,4,6,8,10,12,14,16,18,20,22,24,26,28,30,32,34,36,38,40,42,44,46,48,50,52,54,56,58,60,-1,62,64,66,68,70,72,74,76,78,80,82,84,86,88,90,92,94,96,98,100,-1,102,104,106,108,110,112,114,116,-1,-1,-1,-1,-1,-1,-1,-1,-1,-1,-1,-1,-1,-1,-1,-1,-1,-1,-1,-1,-1,-1,-1,-1,-1,-1,-1,-1,-1,-1,-1,-1,-1,-1,-1,-1,-1,-1,-1,-1,-1,-1,-1,-1,-1,-1,-1,-1,-1,-1,-1,-1,-1,-1,-1,-1,-1],"split_conditions":[3.6733334E0,1.64E0,1.9840375E2,8.1666666E-1,2.2184917E2,1.5428666E1,1.698075E1,4.6666667E-1,8.266667E-1,8.371759E1,1.477755E1,5.359916E0,8.371759E1,2.5258282E2,1.03E1,1.9590247E2,2.5448679E2,1.9707729E2,2.5614124E2,4E-1,7.8283316E-1,2.7466667E0,1.7713316E1,2.0037485E1,9.439082E0,1.6920332E1,1.6489416E1,2.4959866E2,9.511088E0,1.9726583E1,1.4604278E0,1.9367131E2,2.1000001E-1,2.5146318E2,-4.604667E0,8.714083E0,-1.9425006E-1,1.7555307E1,1.3281023E1,1.5847559E1,6.5E0,2.7466667E0,2.5666666E0,9.655749E0,-4.8442497E0,-3.6609166E0,2.6203696E2,5.259916E0,2.1928255E1,2E-1,1.3074502E1,6.7446893E-1,1.9555746E1,3.9299998E0,5.09E0,2E-1,9.42E0,3.8E0,6.1724167E0,1.949533E1,9.478118E-1,-2.2394706E-1,2.2146791E-2,-2.863772E-1,-2.4776424E-1,-1.702671E-1,1.4440403E-2,-1.4269257E-1,-2.2969796E-1,2.3087225E0,9.3809694E-2,-1.6048151E-1,-3.326668E-3,-6.2917046E-2,8.329912E-2,1.8474787E-2,-1.5191418E-1,-9.6097715E-2,1.2199984E-1,5.0566125E-1,-1.3018067E-1,1.8671918E0,-2.8175205E-1,3.234759E-1,6.953723E-1,3.051096E-1,-1.0529923E-1,1.4021848E-1,7.7258945E-1,2.9626608E-1,3.9158843E-2,9.236016E-2,-1.2584308E-1,1.3354622E0,1.0520168E-1,5.3765213E-1,-5.135777E-2,4.36619E0,2.574255E0,6.9783044E-1,2.1966977E0,2.1468926E-2,3.08734E-1,7.6101676E-2,5.977923E-1,1.0713383E0,2.6401636E-1,8.4041643E-1,2.944961E-1,1.5748733E0,1.407072E-1,9.026462E-2,6.9588965E-1,-1.4024169E-2,1.6822748E-1,3.668076E-1,6.350491E-2],"split_indices":[0,0,4,0,4,1,1,0,0,4,3,1,4,4,2,4,4,4,4,2,1,0,3,3,1,1,3,4,3,1,0,4,0,4,1,1,1,3,3,4,2,0,0,1,1,1,4,1,3,2,1,0,1,0,0,2,0,0,1,1,0,0,0,0,0,0,0,0,0,0,0,0,0,0,0,0,0,0,0,0,0,0,0,0,0,0,0,0,0,0,0,0,0,0,0,0,0,0,0,0,0,0,0,0,0,0,0,0,0,0,0,0,0,0,0,0,0],"split_type":[0,0,0,0,0,0,0,0,0,0,0,0,0,0,0,0,0,0,0,0,0,0,0,0,0,0,0,0,0,0,0,0,0,0,0,0,0,0,0,0,0,0,0,0,0,0,0,0,0,0,0,0,0,0,0,0,0,0,0,0,0,0,0,0,0,0,0,0,0,0,0,0,0,0,0,0,0,0,0,0,0,0,0,0,0,0,0,0,0,0,0,0,0,0,0,0,0,0,0,0,0,0,0,0,0,0,0,0,0,0,0,0,0,0,0,0,0],"sum_hessian":[1.748E3,1.57E3,1.78E2,1.318E3,2.52E2,9.3E1,8.5E1,1.036E3,2.82E2,1.25E2,1.27E2,7.3E1,2E1,6.7E1,1.8E1,7.79E2,2.57E2,6E0,2.76E2,3.8E1,8.7E1,3.3E1,9.4E1,2.7E1,4.6E1,7E0,1.3E1,4.1E1,2.6E1,1.4E1,4E0,2.87E2,4.92E2,1.77E2,8E1,2E0,4E0,1.76E2,1E2,2E1,1.8E1,1.1E1,7.6E1,2.2E1,1.1E1,3.9E1,5.5E1,1.9E1,8E0,1.5E1,3.1E1,2E0,5E0,7E0,6E0,3.8E1,3E0,2E0,2.4E1,1E1,4E0,2.8E2,7E0,2.39E2,2.53E2,1.71E2,6E0,1.4E1,6.6E1,1E0,1E0,1E0,3E0,9.9E1,7.7E1,1.2E1,8.8E1,5E0,1.5E1,1.5E1,3E0,8E0,3E0,4.5E1,3.1E1,1.3E1,9E0,5E0,6E0,5E0,3.4E1,2.1E1,3.4E1,1.8E1,1E0,5E0,3E0,6E0,9E0,1.5E1,1.6E1,2E0,3E0,1E0,6E0,5E0,1E0,8E0,3E1,2E0,1E0,1E0,1E0,1.5E1,9E0,9E0,1E0],"tree_param":{"num_deleted":"0","num_feature":"5","num_nodes":"117","size_leaf_vector":"1"}},{"base_weights":[2.9754536E-2,-2.423436E-1,2.7712133E0,-5.029357E-1,5.003628E-1,4.0579324E0,1.2557762E0,-5.656009E-1,-2.554016E-1,8.7892795E-1,1.2121206E-1,2.9083207E0,5.113174E0,2.4872522E0,1.0012764E0,-4.5159853E-1,-6.053602E-1,3.660192E-1,-2.811973E-1,5.6224954E-1,1.5469494E0,4.883079E-1,-1.3942053E-2,4.2965474E0,2.1635375E0,6.7212996E0,3.6864715E0,3.5528183E0,8.295498E-1,1.3808066E0,1.1624631E-1,-6.0672706E-1,-3.472372E-1,-5.668182E-1,-6.6599005E-1,-1.0492583E-2,7.446295E-1,-1.7671043E-1,-4.5210993E-1,2.2796519E-1,8.933231E-1,4.852239E0,1.072555E0,4.56463E-2,9.2933923E-1,6.400313E-2,-3.9713597E-1,2.0301127E0,3.5790312E0,8.439562E-1,3.1229846E0,2.5431845E0,7.6659184E0,6.3661046E0,2.2907195E0,2.6058543E-1,1.1566247E0,-7.360776E-2,1.0936034E0,1.8267733E0,4.861913E-1,-4.1567437E-2,4.914063E-1,-2.1104191E-1,-1.4993444E-1,-1.1706692E-1,-3.0985775E-3,-1.8287532E-1,-1.4401445E-1,-1.2669793E-1,-2.0369175E-1,-8.0841735E-2,5.5909637E-2,2.6013267E-1,3.8206782E-2,-1.0932128E-1,4.0212246E-3,-5.563787E-2,-1.452994E-1,-2.2910237E-4,2.5981155E-1,1.4102875E0,1.9686224E-1,2.4451685E0,3.7294E-1,-3.8672364E-1,3.94529E-1,-5.0811026E-2,4.2955235E-1,5.479416E-1,1.2247545E-1,4.908021E-2,-3.7000384E-2,6.1883297E-2,-1.6518858E-1,1.700239E-2,1.1982316E0,-1.8949643E-1,5.201772E-1,1.573962E0,5.4028755E-1,8.9584124E-1,1.15706E-1,4.642668E-2,2.4574127E0,8.6834997E-1,2.7342253E0,9.229344E-1,-1.10239364E-1,1.8677445E-1,4.466537E-1,3.6629418E-1,9.793071E-1,6.9649726E-1,1.7444754E-2,2.0329878E-1,-6.1303828E-2,-1.23107746E-1,2.2614937E-1],"categories":[],"categories_nodes":[],"categories_segments":[],"categories_sizes":[],"default_left":[0,0,0,0,0,0,0,0,0,0,0,0,0,0,0,0,0,0,0,0,0,0,0,0,0,0,0,0,0,0,0,0,0,0,0,0,0,0,0,0,0,0,0,0,0,0,0,0,0,0,0,0,0,0,0,0,0,0,0,0,0,0,0,0,0,0,0,0,0,0,0,0,0,0,0,0,0,0,0,0,0,0,0,0,0,0,0,0,0,0,0,0,0,0,0,0,0,0,0,0,0,0,0,0,0,0,0,0,0,0,0,0,0,0,0,0,0,0,0],"id":2,"left_children":[1,3,5,7,9,11,13,15,17,19,21,23,25,27,29,31,33,35,37,39,41,43,45,47,49,51,53,55,57,59,61,63,65,67,69,71,73,75,77,79,81,83,85,87,89,91,93,95,-1,97,99,101,103,105,107,-1,-1,-1,109,111,113,115,117,-1,-1,-1,-1,-1,-1,-1,-1,-1,-1,-1,-1,-1,-1,-1,-1,-1,-1,-1,-1,-1,-1,-1,-1,-1,-1,-1,-1,-1,-1,-1,-1,-1,-1,-1,-1,-1,-1,-1,-1,-1,-1,-1,-1,-1,-1,-1,-1,-1,-1,-1,-1,-1,-1,-1,-1],"loss_changes":[1.3053309E3,3.083728E2,3.02995E2,1.814389E1,5.9316246E1,8.824426E1,2.0701942E1,3.9873047E0,3.950119E0,4.2920654E1,1.0326627E1,3.5163147E1,7.387781E1,1.824945E1,2.1000904E1,3.7881088E0,1.2442474E0,1.4333255E0,4.045336E0,1.5511883E1,9.828441E1,1.0890327E1,4.59524E0,2.1799393E2,3.534639E1,5.5491882E1,7.891962E1,2.3367386E0,1.9713273E0,1.6666466E1,1.2045348E0,6.623802E-1,2.168316E0,1.3067322E0,5.4837036E-1,3.5611397E-1,2.675848E-1,5.178966E0,6.5766525E-1,1.0508759E1,6.1017525E1,8.509972E1,3.5490143E1,8.886095E0,1.2343922E1,2.4084506E0,2.5216908E0,4.6283436E1,0E0,1.9480686E1,3.8276917E1,3.6266365E0,5.7934326E1,4.9938507E1,3.8725494E1,0E0,0E0,0E0,3.9110184E-3,2.1269745E1,1.2435505E1,1.8946068E0,1.7292157E0,0E0,0E0,0E0,0E0,0E0,0E0,0E0,0E0,0E0,0E0,0E0,0E0,0E0,0E0,0E0,0E0,0E0,0E0,0E0,0E0,0E0,0E0,0E0,0E0,0E0,0E0,0E0,0E0,0E0,0E0,0E0,0E0,0E0,0E0,0E0,0E0,0E0,0E0,0E0,0E0,0E0,0E0,0E0,0E0,0E0,0E0,0E0,0E0,0E0,0E0,0E0,0E0,0E0,0E0,0E0,0E0],"parents":[2147483647,0,0,1,1,2,2,3,3,4,4,5,5,6,6,7,7,8,8,9,9,10,10,11,11,12,12,13,13,14,14,15,15,16,16,17,17,18,18,19,19,20,20,21,21,22,22,23,23,24,24,25,25,26,26,27,27,28,28,29,29,30,30,31,31,32,32,33,33,34,34,35,35,36,36,37,37,38,38,39,39,40,40,41,41,42,42,43,43,44,44,45,45,46,46,47,47,49,49,50,50,51,51,52,52,53,53,54,54,58,58,59,59,60,60,61,61,62,62],"right_children":[2,4,6,8,10,12,14,16,18,20,22,24,26,28,30,32,34,36,38,40,42,44,46,48,50,52,54,56,58,60,62,64,66,68,70,72,74,76,78,80,82,84,86,88,90,92,94,96,-1,98,100,102,104,106,108,-1,-1,-1,110,112,114,116,118,-1,-1,-1,-1,-1,-1,-1,-1,-1,-1,-1,-1,-1,-1,-1,-1,-1,-1,-1,-1,-1,-1,-1,-1,-1,-1,-1,-1,-1,-1,-1,-1,-1,-1,-1,-1,-1,-1,-1,-1,-1,-1,-1,-1,-1,-1,-1,-1,-1,-1,-1,-1,-1,-1,-1,-1],"split_conditions":[4.18E0,1.1566666E0,1.9840375E2,6.433333E-1,2.2317671E2,6.9700003E0,1.2768586E1,1.6140668E2,-4.604667E0,2.5666666E0,1.4799459E1,6.282833E0,7E-1,4.9E0,2.5826144E2,5.507426E1,2.694543E2,-6.7379994E0,2.5448679E2,1.6215992E1,-3.8175002E-1,2.2733333E0,2.440046E1,5.7640834E0,4E-1,4.8494997E0,1.294219E2,4.2833333E0,1.0551583E1,2.0808498E1,1.1845333E1,2.8666666E-1,1.8301582E1,1.9513195E1,-8.2317505E0,6.466667E-1,-4.8442497E0,5.8245006E0,1.3324863E1,2.02E0,1.6394829E1,1.1212135E1,-3.7999954E-2,1.4689588E1,2.6656018E2,2.99061E2,2.5614124E2,4.6933336E0,3.5790312E0,1.4826581E1,5.0233335E0,1.1093333E1,9.3876505E0,1.0653334E1,1.339E1,2.6058543E-1,1.1566247E0,-7.360776E-2,1.8624498E1,1.764E1,1E-1,1.4578888E1,4.4566665E0,-2.1104191E-1,-1.4993444E-1,-1.1706692E-1,-3.0985775E-3,-1.8287532E-1,-1.4401445E-1,-1.2669793E-1,-2.0369175E-1,-8.0841735E-2,5.5909637E-2,2.6013267E-1,3.8206782E-2,-1.0932128E-1,4.0212246E-3,-5.563787E-2,-1.452994E-1,-2.2910237E-4,2.5981155E-1,1.4102875E0,1.9686224E-1,2.4451685E0,3.7294E-1,-3.8672364E-1,3.94529E-1,-5.0811026E-2,4.2955235E-1,5.479416E-1,1.2247545E-1,4.908021E-2,-3.7000384E-2,6.1883297E-2,-1.6518858E-1,1.700239E-2,1.1982316E0,-1.8949643E-1,5.201772E-1,1.573962E0,5.4028755E-1,8.9584124E-1,1.15706E-1,4.642668E-2,2.4574127E0,8.6834997E-1,2.7342253E0,9.229344E-1,-1.10239364E-1,1.8677445E-1,4.466537E-1,3.6629418E-1,9.793071E-1,6.9649726E-1,1.7444754E-2,2.0329878E-1,-6.1303828E-2,-1.23107746E-1,2.2614937E-1],"split_indices":[0,0,4,0,4,0,3,4,1,0,3,1,2,0,4,4,4,1,4,3,1,0,3,1,2,1,4,0,1,3,1,0,1,3,1,0,1,1,3,0,3,3,1,3,4,4,4,0,0,1,0,0,3,0,0,0,0,0,1,3,2,3,0,0,0,0,0,0,0,0,0,0,0,0,0,0,0,0,0,0,0,0,0,0,0,0,0,0,0,0,0,0,0,0,0,0,0,0,0,0,0,0,0,0,0,0,0,0,0,0,0,0,0,0,0,0,0,0,0],"split_type":[0,0,0,0,0,0,0,0,0,0,0,0,0,0,0,0,0,0,0,0,0,0,0,0,0,0,0,0,0,0,0,0,0,0,0,0,0,0,0,0,0,0,0,0,0,0,0,0,0,0,0,0,0,0,0,0,0,0,0,0,0,0,0,0,0,0,0,0,0,0,0,0,0,0,0,0,0,0,0,0,0,0,0,0,0,0,0,0,0,0,0,0,0,0,0,0,0,0,0,0,0,0,0,0,0,0,0,0,0,0,0,0,0,0,0,0,0,0,0],"sum_hessian":[1.748E3,1.591E3,1.57E2,1.178E3,4.13E2,8.4E1,7.3E1,9.39E2,2.39E2,2.06E2,2.07E2,4.2E1,4.2E1,1.1E1,6.2E1,2.46E2,6.93E2,9E0,2.3E2,1.41E2,6.5E1,5.5E1,1.52E2,1.3E1,2.9E1,1.8E1,2.4E1,6E0,5E0,4.3E1,1.9E1,9.7E1,1.49E2,4.3E2,2.63E2,5E0,4E0,1.44E2,8.6E1,7.1E1,7E1,7E0,5.8E1,2.8E1,2.7E1,1.27E2,2.5E1,1.1E1,2E0,1.3E1,1.6E1,4E0,1.4E1,7E0,1.7E1,1E0,5E0,1E0,4E0,2.8E1,1.5E1,1.4E1,5E0,4.8E1,4.9E1,1.32E2,1.7E1,2.84E2,1.46E2,1.5E1,2.48E2,2E0,3E0,3E0,1E0,7.2E1,7.2E1,1E1,7.6E1,5.3E1,1.8E1,3E0,6.7E1,3E0,4E0,5E0,5.3E1,2.5E1,3E0,9E0,1.8E1,8.3E1,4.4E1,5E0,2E1,6E0,5E0,5E0,8E0,5E0,1.1E1,3E0,1E0,1E0,1.3E1,4E0,3E0,1.3E1,4E0,3E0,1E0,2.1E1,7E0,2E0,1.3E1,2E0,1.2E1,1E0,4E0],"tree_param":{"num_deleted":"0","num_feature":"5","num_nodes":"119","size_leaf_vector":"1"}},{"base_weights":[3.4510728E-2,-1.6682687E-1,2.06296E0,-3.117352E-1,5.313516E-1,3.0190215E0,9.3690294E-1,-3.8418764E-1,-4.5145463E-2,9.280129E-1,1.8738322E-1,1.2258644E0,3.4170601E0,7.7006835E-1,2.2170296E0,-4.3159652E-1,-3.1964484E-1,1.8706304E0,-9.339559E-2,4.6364236E-1,1.5676312E0,4.5399597E-1,-5.7705093E-2,1.6614187E0,6.102231E-1,4.4296336E0,2.4744437E0,1.3068208E0,3.9781508E-1,-9.649515E-4,2.5346673E0,-3.9845484E-1,-4.883192E-1,-2.58989E-1,-3.6760753E-1,4.535435E0,-1.0237875E-1,-5.9077278E-2,-7.857769E-1,-5.4460593E-2,7.914564E-1,5.0777063E0,8.307801E-1,-3.7175286E-1,5.501209E-1,-3.2931033E-1,-1.4692354E-3,-1.8911104E-1,1.2529398E0,2.4634514E0,6.493744E0,9.414404E-1,3.4332962E0,-1.8192537E-1,1.4841366E0,1.3245441E0,1.3301583E-1,2.8992941E0,3.2461995E-1,-1.4366636E-1,-1.07891805E-1,-1.490756E-1,-8.509927E-2,-8.5385844E-2,1.8386833E-1,-1.14878856E-1,9.225611E-3,1.961811E0,7.913506E-2,2.2005223E-2,-1.2079451E-1,-6.4407505E-2,2.9802743E-2,-3.1665763E-1,-1.21132396E-1,1.3373591E-1,-2.877149E-1,1.0339047E-1,4.224824E-1,2.514759E0,2.2720219E-1,7.3296614E-2,4.8613277E-1,-1.4716794E-1,6.898438E-2,1.2776554E-1,3.535217E-1,6.981519E-2,-4.6250287E-2,-2.2346608E-1,1.6586599E-1,5.836871E-1,1.746982E-1,1.0842618E0,2.733355E-1,2.2956169E0,1.0442799E0,7.040069E-1,8.323997E-2,6.967308E-1,2.090372E0,5.186378E-1,-6.975163E-2,9.1339156E-2,1.4227779E0,2.908014E-1,-1.5283989E-2,2.2149761E-1,9.7648656E-1],"categories":[],"categories_nodes":[],"categories_segments":[],"categories_sizes":[],"default_left":[0,0,0,0,0,0,0,0,0,0,0,0,0,0,0,0,0,0,0,0,0,0,0,0,0,0,0,0,0,0,0,0,0,0,0,0,0,0,0,0,0,0,0,0,0,0,0,0,0,0,0,0,0,0,0,0,0,0,0,0,0,0,0,0,0,0,0,0,0,0,0,0,0,0,0,0,0,0,0,0,0,0,0,0,0,0,0,0,0,0,0,0,0,0,0,0,0,0,0,0,0,0,0,0,0,0,0,0,0],"id":3,"left_children":[1,3,5,7,9,11,13,15,17,19,21,23,25,27,29,31,33,35,37,39,41,43,45,-1,47,49,51,53,55,-1,57,59,61,63,65,67,69,71,73,75,77,79,81,83,85,-1,87,89,91,93,95,97,99,-1,101,103,105,107,-1,-1,-1,-1,-1,-1,-1,-1,-1,-1,-1,-1,-1,-1,-1,-1,-1,-1,-1,-1,-1,-1,-1,-1,-1,-1,-1,-1,-1,-1,-1,-1,-1,-1,-1,-1,-1,-1,-1,-1,-1,-1,-1,-1,-1,-1,-1,-1,-1,-1,-1],"loss_changes":[7.146412E2,1.612313E2,1.6727112E2,2.5459229E1,3.721038E1,5.6479492E1,1.409687E1,3.0351562E0,2.6334217E1,3.6994713E1,9.697062E0,4.175158E1,5.489746E1,1.2867252E1,5.6500206E0,9.2396545E-1,1.1935768E0,3.726812E1,6.535475E0,1.2781208E1,1.3286092E2,5.8401365E0,4.560223E0,0E0,8.456872E0,1.13872314E2,5.2624878E1,1.0059685E1,9.8850975E0,0E0,5.7037354E-1,1.0172691E0,2.3742676E-1,4.6214514E0,1.5071716E0,2.3955349E1,2.933657E-1,6.554212E0,9.1338444E-1,1.4003068E1,1.219261E1,1.2215399E2,2.0443764E1,6.846931E-1,4.493683E0,0E0,2.7178702E0,3.710913E0,3.0477133E0,2.8861404E1,2.5710327E1,1.4277652E1,7.412604E1,0E0,1.0901623E1,2.9936207E1,5.1264963E0,1.4396439E0,0E0,0E0,0E0,0E0,0E0,0E0,0E0,0E0,0E0,0E0,0E0,0E0,0E0,0E0,0E0,0E0,0E0,0E0,0E0,0E0,0E0,0E0,0E0,0E0,0E0,0E0,0E0,0E0,0E0,0E0,0E0,0E0,0E0,0E0,0E0,0E0,0E0,0E0,0E0,0E0,0E0,0E0,0E0,0E0,0E0,0E0,0E0,0E0,0E0,0E0,0E0],"parents":[2147483647,0,0,1,1,2,2,3,3,4,4,5,5,6,6,7,7,8,8,9,9,10,10,11,11,12,12,13,13,14,14,15,15,16,16,17,17,18,18,19,19,20,20,21,21,22,22,24,24,25,25,26,26,27,27,28,28,30,30,31,31,32,32,33,33,34,34,35,35,36,36,37,37,38,38,39,39,40,40,41,41,42,42,43,43,44,44,46,46,47,47,48,48,49,49,50,50,51,51,52,52,54,54,55,55,56,56,57,57],"right_children":[2,4,6,8,10,12,14,16,18,20,22,24,26,28,30,32,34,36,38,40,42,44,46,-1,48,50,52,54,56,-1,58,60,62,64,66,68,70,72,74,76,78,80,82,84,86,-1,88,90,92,94,96,98,100,-1,102,104,106,108,-1,-1,-1,-1,-1,-1,-1,-1,-1,-1,-1,-1,-1,-1,-1,-1,-1,-1,-1,-1,-1,-1,-1,-1,-1,-1,-1,-1,-1,-1,-1,-1,-1,-1,-1,-1,-1,-1,-1,-1,-1,-1,-1,-1,-1,-1,-1,-1,-1,-1,-1],"split_conditions":[4.18E0,1.64E0,1.9840375E2,8.1666666E-1,2.143514E2,4.6933336E0,1.943075E1,3.2333332E-1,8.266667E-1,1.5035011E2,1.6746773E1,9.511088E0,9.439082E0,2.3545401E2,1E-1,2.6203696E2,4.6307497E0,1.9707729E2,2.996662E1,1.1203336E0,7.8283316E-1,1.89E0,2.2184917E2,1.6614187E0,1.3814084E1,5.359916E0,1.3074502E1,4.5933332E0,2.71825E0,-9.649515E-4,2.7605304E2,1.4336861E1,1.7437002E1,4.4890833E0,2.0764084E1,8.714083E0,2.6890833E0,1.1566666E0,3.0892126E2,4.677143E1,6E-1,2.7466667E0,1.9921053E2,1.5827721E1,1.698075E1,-3.2931033E-1,2.6203696E2,1.567567E2,1.923908E1,1.4002582E2,1.7581125E1,1.5035011E2,3.4999998E0,-1.8192537E-1,1.1093333E1,2.5474167E0,4.6933336E0,4.2833333E0,3.2461995E-1,-1.4366636E-1,-1.07891805E-1,-1.490756E-1,-8.509927E-2,-8.5385844E-2,1.8386833E-1,-1.14878856E-1,9.225611E-3,1.961811E0,7.913506E-2,2.2005223E-2,-1.2079451E-1,-6.4407505E-2,2.9802743E-2,-3.1665763E-1,-1.21132396E-1,1.3373591E-1,-2.877149E-1,1.0339047E-1,4.224824E-1,2.514759E0,2.2720219E-1,7.3296614E-2,4.8613277E-1,-1.4716794E-1,6.898438E-2,1.2776554E-1,3.535217E-1,6.981519E-2,-4.6250287E-2,-2.2346608E-1,1.6586599E-1,5.836871E-1,1.746982E-1,1.0842618E0,2.733355E-1,2.2956169E0,1.0442799E0,7.040069E-1,8.323997E-2,6.967308E-1,2.090372E0,5.186378E-1,-6.975163E-2,9.1339156E-2,1.4227779E0,2.908014E-1,-1.5283989E-2,2.2149761E-1,9.7648656E-1],"split_indices":[0,0,4,0,4,0,1,0,0,4,3,3,1,4,2,4,1,4,3,1,1,0,4,0,1,1,1,0,1,0,4,3,1,1,1,1,1,0,4,4,2,0,4,3,1,0,4,4,1,4,3,4,2,0,0,1,0,0,0,0,0,0,0,0,0,0,0,0,0,0,0,0,0,0,0,0,0,0,0,0,0,0,0,0,0,0,0,0,0,0,0,0,0,0,0,0,0,0,0,0,0,0,0,0,0,0,0,0,0],"split_type":[0,0,0,0,0,0,0,0,0,0,0,0,0,0,0,0,0,0,0,0,0,0,0,0,0,0,0,0,0,0,0,0,0,0,0,0,0,0,0,0,0,0,0,0,0,0,0,0,0,0,0,0,0,0,0,0,0,0,0,0,0,0,0,0,0,0,0,0,0,0,0,0,0,0,0,0,0,0,0,0,0,0,0,0,0,0,0,0,0,0,0,0,0,0,0,0,0,0,0,0,0,0,0,0,0,0,0,0,0],"sum_hessian":[1.748E3,1.591E3,1.57E2,1.318E3,2.73E2,8.4E1,7.3E1,1.036E3,2.82E2,1.26E2,1.47E2,1.6E1,6.8E1,6.6E1,7E0,5.94E2,4.42E2,6E0,2.76E2,7.4E1,5.2E1,7E1,7.7E1,1E0,1.5E1,3.1E1,3.7E1,2.6E1,4E1,1E0,6E0,3.8E2,2.14E2,1.98E2,2.44E2,2E0,4E0,2.64E2,1.2E1,2.9E1,4.5E1,8E0,4.4E1,7E0,6.3E1,3E0,7.4E1,7E0,8E0,1.7E1,1.4E1,1.5E1,2.2E1,2E0,2.4E1,8E0,3.2E1,4E0,2E0,1.2E2,2.6E2,2.04E2,1E1,1.93E2,5E0,2.35E2,9E0,1E0,1E0,3E0,1E0,1.33E2,1.31E2,6E0,6E0,1.9E1,1E1,2.7E1,1.8E1,4E0,4E0,2.6E1,1.8E1,6E0,1E0,5.4E1,9E0,2.9E1,4.5E1,4E0,3E0,3E0,5E0,9E0,8E0,9E0,5E0,4E0,1.1E1,1.8E1,4E0,2.1E1,3E0,7E0,1E0,5E0,2.7E1,1E0,3E0],"tree_param":{"num_deleted":"0","num_feature":"5","num_nodes":"109","size_leaf_vector":"1"}},{"base_weights":[3.4997854E-2,-1.13796726E-1,1.534023E0,-2.154646E-1,3.9612302E-1,2.2384214E0,7.0418656E-1,-2.6940668E-1,-2.3158474E-2,7.317911E-1,1.494286E-1,2.5199087E0,7.5682104E-1,1.4039817E0,4.7084448E-1,-3.3162415E-1,-2.425429E-1,1.5868921E0,-6.2484335E-2,2.9301837E-1,1.4844701E0,4.0962884E-1,-8.403535E-2,1.369358E0,3.042686E0,1.363966E0,-1.319112E-1,9.304791E-1,8.485864E-1,1.058331E0,2.5495744E-1,-3.3572167E-1,1.401764E-1,-1.7803536E-1,-2.683509E-1,3.85512E0,-9.142296E-2,1.8396856E-1,-1.4626274E-1,7.577882E-2,7.8330016E-1,3.8590567E0,7.9187167E-1,2.8939024E-1,1.7040614E0,-2.938372E-1,1.25967935E-2,2.5203917E0,3.6716297E-1,5.058682E0,1.9730308E0,7.297421E-1,7.167499E-1,1.7463571E-1,-5.339471E-1,7.1059674E-1,5.270169E-1,5.5803984E-1,1.2093612E0,6.565646E-1,-7.349193E-3,-1.0541463E-1,-5.1720414E-2,-8.987866E-2,-3.2214683E-2,-8.602791E-2,-4.0693194E-2,1.6675392E0,6.7264795E-2,-1.1791516E-1,2.4673969E-2,-1.5582752E-1,1.2708426E-1,-2.1284815E-2,-1.1385851E-1,-8.948548E-2,8.147513E-2,-1.4190447E-2,3.522203E-1,1.6469783E0,-3.6979795E-1,5.2102186E-2,8.1060916E-1,-2.1214793E-2,2.020392E-1,9.0194565E-1,9.03684E-2,-3.6662385E-2,4.630435E-2,4.0931764E-1,1.260688E0,-2.5870478E-1,1.9318326E-1,1.8676556E0,6.229101E-1,2.1246336E-1,8.963106E-1,2.5467592E-1,2.2015215E-3,-2.282175E-1,-3.875606E-2,2.994681E-1,6.200283E-2,3.8552508E-2,6.2704575E-1,5.1356775E-1,6.00493E-2,-2.2913918E-1,3.570951E-2],"categories":[],"categories_nodes":[],"categories_segments":[],"categories_sizes":[],"default_left":[0,0,0,0,0,0,0,0,0,0,0,0,0,0,0,0,0,0,0,0,0,0,0,0,0,0,0,0,0,0,0,0,0,0,0,0,0,0,0,0,0,0,0,0,0,0,0,0,0,0,0,0,0,0,0,0,0,0,0,0,0,0,0,0,0,0,0,0,0,0,0,0,0,0,0,0,0,0,0,0,0,0,0,0,0,0,0,0,0,0,0,0,0,0,0,0,0,0,0,0,0,0,0,0,0,0,0,0,0],"id":4,"left_children":[1,3,5,7,9,11,13,15,17,19,21,23,25,27,29,31,33,35,37,39,41,43,45,47,49,51,53,55,-1,57,59,61,-1,63,65,67,69,71,73,75,77,79,81,83,85,-1,87,89,91,93,95,97,-1,-1,99,-1,101,103,-1,105,107,-1,-1,-1,-1,-1,-1,-1,-1,-1,-1,-1,-1,-1,-1,-1,-1,-1,-1,-1,-1,-1,-1,-1,-1,-1,-1,-1,-1,-1,-1,-1,-1,-1,-1,-1,-1,-1,-1,-1,-1,-1,-1,-1,-1,-1,-1,-1,-1],"loss_changes":[3.9028345E2,8.261854E1,9.0780365E1,1.3769623E1,2.1834618E1,3.3542236E1,1.1422527E1,1.6528015E0,1.858761E1,3.6553585E1,9.389518E0,3.8538666E1,8.273762E0,9.510296E0,6.9595222E0,1.171627E0,1.1642036E0,2.7000051E1,5.9320717E0,7.6092615E0,6.437416E1,1.0868638E1,7.1075144E0,2.6760048E1,9.352728E1,4.108383E0,2.320281E0,7.455426E0,0E0,2.0059956E1,4.534626E0,7.2974014E-1,0E0,1.780024E0,1.2265663E0,1.730774E1,2.9424462E-1,1.2525294E1,3.7326279E0,3.8164296E0,7.196121E0,8.150258E1,3.849897E1,9.452522E0,1.0056866E1,0E0,1.452016E0,1.5653473E1,5.3195863E0,4.2751556E1,4.0235474E1,5.964303E-1,0E0,0E0,3.6067772E-1,0E0,1.7560122E0,8.944666E0,0E0,7.8454213E0,2.6721315E0,0E0,0E0,0E0,0E0,0E0,0E0,0E0,0E0,0E0,0E0,0E0,0E0,0E0,0E0,0E0,0E0,0E0,0E0,0E0,0E0,0E0,0E0,0E0,0E0,0E0,0E0,0E0,0E0,0E0,0E0,0E0,0E0,0E0,0E0,0E0,0E0,0E0,0E0,0E0,0E0,0E0,0E0,0E0,0E0,0E0,0E0,0E0,0E0],"parents":[2147483647,0,0,1,1,2,2,3,3,4,4,5,5,6,6,7,7,8,8,9,9,10,10,11,11,12,12,13,13,14,14,15,15,16,16,17,17,18,18,19,19,20,20,21,21,22,22,23,23,24,24,25,25,26,26,27,27,29,29,30,30,31,31,33,33,34,34,35,35,36,36,37,37,38,38,39,39,40,40,41,41,42,42,43,43,44,44,46,46,47,47,48,48,49,49,50,50,51,51,54,54,56,56,57,57,59,59,60,60],"right_children":[2,4,6,8,10,12,14,16,18,20,22,24,26,28,30,32,34,36,38,40,42,44,46,48,50,52,54,56,-1,58,60,62,-1,64,66,68,70,72,74,76,78,80,82,84,86,-1,88,90,92,94,96,98,-1,-1,100,-1,102,104,-1,106,108,-1,-1,-1,-1,-1,-1,-1,-1,-1,-1,-1,-1,-1,-1,-1,-1,-1,-1,-1,-1,-1,-1,-1,-1,-1,-1,-1,-1,-1,-1,-1,-1,-1,-1,-1,-1,-1,-1,-1,-1,-1,-1,-1,-1,-1,-1,-1,-1],"split_conditions":[4.18E0,1.6899999E0,1.9840375E2,8.1666666E-1,2.0555989E2,1.5830749E1,1.44E1,1.9E-1,8.266667E-1,1.5035011E2,1.6595179E1,5.359916E0,1.7555307E1,1.03E1,2.71825E0,1.76E1,1.6140668E2,1.9707729E2,1.5379005E2,3.0633333E0,7.8283316E-1,1.6179985E1,2.2184917E2,1.4002582E2,9.439082E0,1.6489416E1,4.6933336E0,2.2678722E2,8.485864E-1,2.5974166E0,2.3545401E2,2.556E1,1.401764E-1,5.507426E1,6.433333E-1,8.714083E0,-1.9425006E-1,4.2544075E1,1.3000001E0,-3.7999954E-2,1.2682018E1,1.9461372E2,1.9921053E2,2E-1,2.2184917E2,-2.938372E-1,6.580751E0,1E0,1.4241629E1,1.7255685E2,1.3074502E1,1.2324414E1,7.167499E-1,1.7463571E-1,5.66E0,7.1059674E-1,1.2312E1,2E0,1.2093612E0,2E-1,1.5124284E1,-1.0541463E-1,-5.1720414E-2,-8.987866E-2,-3.2214683E-2,-8.602791E-2,-4.0693194E-2,1.6675392E0,6.7264795E-2,-1.1791516E-1,2.4673969E-2,-1.5582752E-1,1.2708426E-1,-2.1284815E-2,-1.1385851E-1,-8.948548E-2,8.147513E-2,-1.4190447E-2,3.522203E-1,1.6469783E0,-3.6979795E-1,5.2102186E-2,8.1060916E-1,-2.1214793E-2,2.020392E-1,9.0194565E-1,9.03684E-2,-3.6662385E-2,4.630435E-2,4.0931764E-1,1.260688E0,-2.5870478E-1,1.9318326E-1,1.8676556E0,6.229101E-1,2.1246336E-1,8.963106E-1,2.5467592E-1,2.2015215E-3,-2.282175E-1,-3.875606E-2,2.994681E-1,6.200283E-2,3.8552508E-2,6.2704575E-1,5.1356775E-1,6.00493E-2,-2.2913918E-1,3.570951E-2],"split_indices":[0,0,4,0,4,1,3,0,0,4,3,1,3,2,1,2,4,4,4,0,1,3,4,4,1,3,0,4,0,1,4,3,0,4,0,1,1,4,2,1,3,4,4,2,4,0,1,2,3,4,1,3,0,0,0,0,1,2,0,2,3,0,0,0,0,0,0,0,0,0,0,0,0,0,0,0,0,0,0,0,0,0,0,0,0,0,0,0,0,0,0,0,0,0,0,0,0,0,0,0,0,0,0,0,0,0,0,0,0],"split_type":[0,0,0,0,0,0,0,0,0,0,0,0,0,0,0,0,0,0,0,0,0,0,0,0,0,0,0,0,0,0,0,0,0,0,0,0,0,0,0,0,0,0,0,0,0,0,0,0,0,0,0,0,0,0,0,0,0,0,0,0,0,0,0,0,0,0,0,0,0,0,0,0,0,0,0,0,0,0,0,0,0,0,0,0,0,0,0,0,0,0,0,0,0,0,0,0,0,0,0,0,0,0,0,0,0,0,0,0,0],"sum_hessian":[1.748E3,1.591E3,1.57E2,1.327E3,2.64E2,8.4E1,7.3E1,1.036E3,2.91E2,1.11E2,1.53E2,7E1,1.4E1,1.7E1,5.6E1,3.09E2,7.27E2,6E0,2.85E2,7.1E1,4E1,7.2E1,8.1E1,2.3E1,4.7E1,8E0,6E0,1.4E1,3E0,1.4E1,4.2E1,3.08E2,1E0,2.1E2,5.17E2,2E0,4E0,7.2E1,2.13E2,5E1,2.1E1,8E0,3.2E1,6.7E1,5E0,7E0,7.4E1,1E1,1.3E1,1.5E1,3.2E1,6E0,2E0,2E0,4E0,2E0,1.2E1,1.3E1,1E0,1.6E1,2.6E1,2.8E2,2.8E1,7.6E1,1.34E2,4.53E2,6.4E1,1E0,1E0,1E0,3E0,1.8E1,5.4E1,1.62E2,5.1E1,1.7E1,3.3E1,7E0,1.4E1,6E0,2E0,2.5E1,7E0,3.5E1,3.2E1,2E0,3E0,3.8E1,3.6E1,7E0,3E0,2E0,1.1E1,1E1,5E0,1.5E1,1.7E1,5E0,1E0,2E0,2E0,4E0,8E0,1.1E1,2E0,4E0,1.2E1,3E0,2.3E1],"tree_param":{"num_deleted":"0","num_feature":"5","num_nodes":"109","size_leaf_vector":"1"}},{"base_weights":[3.2978587E-2,-7.678662E-2,1.1387585E0,-1.5584663E-1,2.6421797E-1,1.6384846E0,5.493603E-1,-1.8884094E-1,-2.2107517E-2,5.3455997E-1,7.848648E-2,2.0847452E0,1.0032076E0,1.0894902E0,3.6915508E-1,-2.66006E-1,-1.7559366E-1,1.3453335E0,-6.0155243E-2,3.607631E-1,2.2555315E0,-3.424485E-1,2.1821676E-1,1.6033044E0,6.000763E0,4.261838E-1,2.7510388E0,7.624956E-1,7.4108946E-1,8.65829E-1,1.8731171E-1,-5.1290646E-2,-2.8773192E-1,-1.4651202E-1,-2.3756868E-1,3.276852E0,-8.26443E-2,-4.6651235E-1,-3.2350715E-2,4.2038804E-1,-2.9978642E-1,2.0081623E0,5.254695E-1,-9.784285E-1,-1.5627494E-1,4.530261E-1,-7.406056E-2,1.2408621E0,1.5024364E0,6.8304653E0,4.0229303E-1,9.0404916E-1,-7.361892E-1,1.5733465E0,1.2894119E0,5.684774E-1,4.6536824E-1,4.3817064E-1,1.027957E0,4.801771E-1,-2.264555E-2,-5.4635037E-2,3.7272487E-2,-8.904388E-2,6.41393E-2,-2.4096636E-2,-5.486156E-2,-7.5631924E-2,-4.7250994E-2,1.4174083E0,5.7175077E-2,2.2196598E-2,-1.06376424E-1,-8.3808064E-2,-2.8743866E-1,8.667218E-2,-2.9816275E-2,4.8888307E-2,2.2530846E-1,4.8031083E-1,-3.6577436E-1,-7.813372E-2,-3.0877978E-1,1.5550365E-1,-6.999346E-2,8.553845E-2,1.0085797E0,-3.3567238E-1,-2.1756446E-4,4.3066856E-1,-2.9030237E-1,2.381449E0,5.261055E-1,5.176878E-1,-1.9401492E-1,-3.612997E-1,4.502181E-2,5.010444E-2,1.2035692E0,5.656917E-2,2.77771E-1,4.092799E-1,-2.060828E-2,7.4192815E-2,6.658393E-1,-2.8816158E-2,2.7188432E-1],"categories":[],"categories_nodes":[],"categories_segments":[],"categories_sizes":[],"default_left":[0,0,0,0,0,0,0,0,0,0,0,0,0,0,0,0,0,0,0,0,0,0,0,0,0,0,0,0,0,0,0,0,0,0,0,0,0,0,0,0,0,0,0,0,0,0,0,0,0,0,0,0,0,0,0,0,0,0,0,0,0,0,0,0,0,0,0,0,0,0,0,0,0,0,0,0,0,0,0,0,0,0,0,0,0,0,0,0,0,0,0,0,0,0,0,0,0,0,0,0,0,0,0,0,0,0,0],"id":5,"left_children":[1,3,5,7,9,11,13,15,17,19,21,23,25,27,29,31,33,35,37,39,41,43,45,47,49,51,53,55,-1,57,59,61,63,65,67,69,71,73,75,77,-1,-1,79,81,83,85,87,89,-1,91,-1,93,95,-1,97,-1,99,101,-1,103,105,-1,-1,-1,-1,-1,-1,-1,-1,-1,-1,-1,-1,-1,-1,-1,-1,-1,-1,-1,-1,-1,-1,-1,-1,-1,-1,-1,-1,-1,-1,-1,-1,-1,-1,-1,-1,-1,-1,-1,-1,-1,-1,-1,-1,-1,-1],"loss_changes":[2.1237436E2,4.296122E1,4.5636826E1,5.701355E0,1.5021349E1,2.2005981E1,6.800543E0,1.0133438E0,1.345213E1,3.5676422E1,1.0603036E1,8.276015E1,3.6143536E1,6.2437096E0,4.9858813E0,6.849756E-1,1.5656643E0,1.957797E1,2.8208487E0,9.502498E0,8.094726E1,5.175215E0,9.298526E0,4.9317825E1,1.0171692E1,1.6773827E1,2.6038132E1,4.501772E0,0E0,1.4925132E1,2.65491E0,3.6708963E-1,6.8285656E-1,1.4461498E0,2.885313E-1,1.2504837E1,2.3921227E-1,1.2044506E0,5.11124E0,9.070108E0,0E0,0E0,1.8841097E1,9.693718E-2,1.9918721E0,3.5671368E1,4.6732674E0,1.9449211E1,0E0,8.57312E0,0E0,2.7871525E1,3.914813E0,0E0,2.0719917E1,0E0,1.6101019E0,6.665392E0,0E0,6.741535E0,1.8600157E0,0E0,0E0,0E0,0E0,0E0,0E0,0E0,0E0,0E0,0E0,0E0,0E0,0E0,0E0,0E0,0E0,0E0,0E0,0E0,0E0,0E0,0E0,0E0,0E0,0E0,0E0,0E0,0E0,0E0,0E0,0E0,0E0,0E0,0E0,0E0,0E0,0E0,0E0,0E0,0E0,0E0,0E0,0E0,0E0,0E0,0E0],"parents":[2147483647,0,0,1,1,2,2,3,3,4,4,5,5,6,6,7,7,8,8,9,9,10,10,11,11,12,12,13,13,14,14,15,15,16,16,17,17,18,18,19,19,20,20,21,21,22,22,23,23,24,24,25,25,26,26,27,27,29,29,30,30,31,31,32,32,33,33,34,34,35,35,36,36,37,37,38,38,39,39,42,42,43,43,44,44,45,45,46,46,47,47,49,49,51,51,52,52,54,54,56,56,57,57,59,59,60,60],"right_children":[2,4,6,8,10,12,14,16,18,20,22,24,26,28,30,32,34,36,38,40,42,44,46,48,50,52,54,56,-1,58,60,62,64,66,68,70,72,74,76,78,-1,-1,80,82,84,86,88,90,-1,92,-1,94,96,-1,98,-1,100,102,-1,104,106,-1,-1,-1,-1,-1,-1,-1,-1,-1,-1,-1,-1,-1,-1,-1,-1,-1,-1,-1,-1,-1,-1,-1,-1,-1,-1,-1,-1,-1,-1,-1,-1,-1,-1,-1,-1,-1,-1,-1,-1,-1,-1,-1,-1,-1,-1],"split_conditions":[4.18E0,1.5566666E0,1.9840375E2,8.1666666E-1,2.0193353E2,1.7581125E1,1.44E1,1.2074766E1,8.266667E-1,1.9100078E2,1.9433334E0,1.7313717E1,5.400001E0,1.05E1,2.71825E0,-3.2859163E0,2.6263257E2,1.9707729E2,4.2544075E1,1.76E1,1.4113653E1,2.1692618E2,9.655749E0,1.467E1,7.096667E0,1.7255685E2,1.2588224E2,2.2678722E2,7.4108946E-1,2.5974166E0,2.3725418E2,2.8163626E2,7.866667E-1,4.7307496E0,2.3090569E1,8.714083E0,2.6890833E0,1.6E0,1.4621815E2,6E-1,-2.9978642E-1,2.0081623E0,1.8E0,1.191812E1,1.58E0,8.416167E0,2.0555989E2,1.339E1,1.5024364E0,8.097417E0,4.0229303E-1,1.3814084E1,7.9349174E0,1.5733465E0,1.2770332E1,5.684774E-1,3.2054163E2,2.1394121E2,1.027957E0,2.3188583E1,2.1413334E1,-5.4635037E-2,3.7272487E-2,-8.904388E-2,6.41393E-2,-2.4096636E-2,-5.486156E-2,-7.5631924E-2,-4.7250994E-2,1.4174083E0,5.7175077E-2,2.2196598E-2,-1.06376424E-1,-8.3808064E-2,-2.8743866E-1,8.667218E-2,-2.9816275E-2,4.8888307E-2,2.2530846E-1,4.8031083E-1,-3.6577436E-1,-7.813372E-2,-3.0877978E-1,1.5550365E-1,-6.999346E-2,8.553845E-2,1.0085797E0,-3.3567238E-1,-2.1756446E-4,4.3066856E-1,-2.9030237E-1,2.381449E0,5.261055E-1,5.176878E-1,-1.9401492E-1,-3.612997E-1,4.502181E-2,5.010444E-2,1.2035692E0,5.656917E-2,2.77771E-1,4.092799E-1,-2.060828E-2,7.4192815E-2,6.658393E-1,-2.8816158E-2,2.7188432E-1],"split_indices":[0,0,4,0,4,3,3,3,0,4,0,3,2,2,1,1,4,4,4,2,3,4,1,0,0,4,4,4,0,1,4,4,0,1,3,1,1,2,4,2,0,0,0,3,0,1,4,0,0,1,0,1,1,0,1,0,4,4,0,3,0,0,0,0,0,0,0,0,0,0,0,0,0,0,0,0,0,0,0,0,0,0,0,0,0,0,0,0,0,0,0,0,0,0,0,0,0,0,0,0,0,0,0,0,0,0,0],"split_type":[0,0,0,0,0,0,0,0,0,0,0,0,0,0,0,0,0,0,0,0,0,0,0,0,0,0,0,0,0,0,0,0,0,0,0,0,0,0,0,0,0,0,0,0,0,0,0,0,0,0,0,0,0,0,0,0,0,0,0,0,0,0,0,0,0,0,0,0,0,0,0,0,0,0,0,0,0,0,0,0,0,0,0,0,0,0,0,0,0,0,0,0,0,0,0,0,0,0,0,0,0,0,0,0,0,0,0],"sum_hessian":[1.748E3,1.591E3,1.57E2,1.292E3,2.99E2,8.4E1,7.3E1,1.036E3,2.56E2,1.21E2,1.78E2,4.8E1,3.6E1,1.7E1,5.6E1,1.49E2,8.87E2,6E0,2.5E2,1.11E2,1E1,4.4E1,1.34E2,4.4E1,4E0,2.8E1,8E0,1.5E1,2E0,1.4E1,4.2E1,1.4E1,1.35E2,6.06E2,2.81E2,2E0,4E0,1.5E1,2.35E2,1.07E2,4E0,2E0,8E0,9E0,3.5E1,7.4E1,6E1,4.1E1,3E0,3E0,1E0,2E1,8E0,2E0,6E0,2E0,1.3E1,1.3E1,1E0,1.7E1,2.5E1,8E0,6E0,1.33E2,2E0,2.16E2,3.9E2,2.36E2,4.5E1,1E0,1E0,3E0,1E0,1.2E1,3E0,4E1,1.95E2,6.1E1,4.6E1,5E0,3E0,1E0,8E0,3E0,3.2E1,7.1E1,3E0,3E0,5.7E1,3.8E1,3E0,2E0,1E0,1.3E1,7E0,5E0,3E0,5E0,1E0,9E0,4E0,4E0,9E0,1.6E1,1E0,2.4E1,1E0],"tree_param":{"num_deleted":"0","num_feature":"5","num_nodes":"107","size_leaf_vector":"1"}},{"base_weights":[3.1785145E-2,-5.162385E-2,8.720088E-1,-1.1793966E-1,1.6466117E-1,1.7914152E0,6.688379E-1,-1.12836406E-1,-4.7213256E-1,1.419743E-1,1.1848382E0,1.1096753E0,1.4116452E0,7.836461E-1,-3.4660503E-1,-1.4246361E-1,-3.9930668E-2,-1.9755483E-1,-2.508493E-1,1.3117155E0,1.2219413E-1,1.537617E0,8.4334455E-2,3.430074E-2,1.8753499E0,1.1853304E0,3.7559578E-1,2.0992737E-2,-7.6880646E-1,-1.5219152E-1,1.0684482E-2,-3.4562162E-1,-1.830736E-2,1.2737918E-1,-3.0222976E-1,6.885612E-1,2.4617021E-1,1.7748776E-1,-2.4321598E-1,-6.852592E-2,1.9365083E0,-1.0947887E-1,1.4742938E-1,8.324763E-1,-2.3556897E-1,5.854853E-1,9.2447215E-1,-6.3334674E-1,1.4830316E0,1.0373192E0,2.686263E-1,7.243765E-1,-3.7210855E-1,-4.996157E-2,-3.3084318E-2,1.2840548E-1,-3.3516776E-2,-1.1452535E-1,6.747711E-3,1.1303348E-2,-4.3731153E-2,9.922256E-3,-1.029482E-1,-1.3743633E-1,1.9009231E-1,2.470191E-2,1.4425911E-1,2.7306014E-1,-1.02101125E-1,6.9014204E-1,7.20971E-2,7.509313E-2,2.995212E-1,2.3719521E-1,-1.9251741E-1,3.5947978E-1,-9.805856E-2,1.9860797E-1,-4.1741136E-1,7.9202473E-1,3.296522E-1,1.1849194E-1,5.928715E-1,1.3483816E-1,3.9641387E-3,3.5098797E-1,1.1200285E-2,-3.9081272E-1,2.3963572E-2],"categories":[],"categories_nodes":[],"categories_segments":[],"categories_sizes":[],"default_left":[0,0,0,0,0,0,0,0,0,0,0,0,0,0,0,0,0,0,0,0,0,0,0,0,0,0,0,0,0,0,0,0,0,0,0,0,0,0,0,0,0,0,0,0,0,0,0,0,0,0,0,0,0,0,0,0,0,0,0,0,0,0,0,0,0,0,0,0,0,0,0,0,0,0,0,0,0,0,0,0,0,0,0,0,0,0,0,0,0],"id":6,"left_children":[1,3,5,7,9,11,13,15,17,19,21,23,-1,25,27,29,31,33,-1,35,37,39,41,43,45,47,49,51,-1,53,55,57,59,-1,61,-1,63,65,67,-1,69,-1,-1,71,73,75,-1,77,79,81,83,85,87,-1,-1,-1,-1,-1,-1,-1,-1,-1,-1,-1,-1,-1,-1,-1,-1,-1,-1,-1,-1,-1,-1,-1,-1,-1,-1,-1,-1,-1,-1,-1,-1,-1,-1,-1,-1],"loss_changes":[1.22618805E2,2.285366E1,2.8315704E1,2.150114E0,8.487869E0,5.0404274E1,1.5543747E1,2.592784E0,1.5340474E0,8.3312435E0,2.976201E0,1.9696962E1,0E0,1.8895866E1,1.1458579E1,1.2754135E0,2.30058E0,8.4468687E-1,0E0,5.7226973E0,7.357324E0,4.669077E0,7.280196E-1,2.5655432E0,1.9977901E1,3.28832E1,3.968402E0,3.8640604E0,0E0,4.6507072E-1,2.7042186E0,3.1448197E-1,2.3389797E0,0E0,1.4859271E-1,0E0,1.3818535E0,9.053081E0,5.6867876E0,0E0,2.5339012E0,0E0,0E0,3.9881468E-2,4.258625E0,4.864217E0,0E0,9.758446E0,1.976992E1,4.044327E0,2.441989E0,1.4869931E0,3.8896327E0,0E0,0E0,0E0,0E0,0E0,0E0,0E0,0E0,0E0,0E0,0E0,0E0,0E0,0E0,0E0,0E0,0E0,0E0,0E0,0E0,0E0,0E0,0E0,0E0,0E0,0E0,0E0,0E0,0E0,0E0,0E0,0E0,0E0,0E0,0E0,0E0],"parents":[2147483647,0,0,1,1,2,2,3,3,4,4,5,5,6,6,7,7,8,8,9,9,10,10,11,11,13,13,14,14,15,15,16,16,17,17,19,19,20,20,21,21,22,22,23,23,24,24,25,25,26,26,27,27,29,29,30,30,31,31,32,32,34,34,36,36,37,37,38,38,40,40,43,43,44,44,45,45,47,47,48,48,49,49,50,50,51,51,52,52],"right_children":[2,4,6,8,10,12,14,16,18,20,22,24,-1,26,28,30,32,34,-1,36,38,40,42,44,46,48,50,52,-1,54,56,58,60,-1,62,-1,64,66,68,-1,70,-1,-1,72,74,76,-1,78,80,82,84,86,88,-1,-1,-1,-1,-1,-1,-1,-1,-1,-1,-1,-1,-1,-1,-1,-1,-1,-1,-1,-1,-1,-1,-1,-1,-1,-1,-1,-1,-1,-1,-1,-1,-1,-1,-1,-1],"split_conditions":[4.18E0,1.31E0,1.3697777E2,1.5500001E1,2.1220333E1,1.2809999E1,1.339E1,5.4333335E-1,5.966667E-1,8.604301E0,1.919893E2,7.575806E1,1.4116452E0,2.1394121E2,1.3476583E1,1.8459917E1,1.0464797E1,1.1E-1,-2.508493E-1,2.143514E2,2.3665035E1,1.61E0,1.7233334E0,1.2770332E1,1.5530151E1,1.4621815E2,1.097262E1,1E-1,-7.6880646E-1,2.0192118E1,1.2200534E2,3.315231E2,2.0592503E1,1.2737918E-1,-3.177583E0,6.885612E-1,1.4E0,1.7E0,5.156663E1,-6.852592E-2,3.2666667E0,-1.0947887E-1,1.4742938E-1,4.4566665E0,1.5847559E1,1.1263491E2,9.2447215E-1,1.4249365E2,1E-1,9.299999E0,2.5258282E2,1.5472672E1,1.405845E1,-4.996157E-2,-3.3084318E-2,1.2840548E-1,-3.3516776E-2,-1.1452535E-1,6.747711E-3,1.1303348E-2,-4.3731153E-2,9.922256E-3,-1.029482E-1,-1.3743633E-1,1.9009231E-1,2.470191E-2,1.4425911E-1,2.7306014E-1,-1.02101125E-1,6.9014204E-1,7.20971E-2,7.509313E-2,2.995212E-1,2.3719521E-1,-1.9251741E-1,3.5947978E-1,-9.805856E-2,1.9860797E-1,-4.1741136E-1,7.9202473E-1,3.296522E-1,1.1849194E-1,5.928715E-1,1.3483816E-1,3.9641387E-3,3.5098797E-1,1.1200285E-2,-3.9081272E-1,2.3963572E-2],"split_indices":[0,0,4,2,1,0,0,0,0,3,4,4,0,4,1,1,3,0,0,4,3,0,0,1,3,4,3,2,0,3,4,4,3,0,1,0,0,2,4,0,0,0,0,0,4,4,0,4,2,2,4,3,3,0,0,0,0,0,0,0,0,0,0,0,0,0,0,0,0,0,0,0,0,0,0,0,0,0,0,0,0,0,0,0,0,0,0,0,0],"split_type":[0,0,0,0,0,0,0,0,0,0,0,0,0,0,0,0,0,0,0,0,0,0,0,0,0,0,0,0,0,0,0,0,0,0,0,0,0,0,0,0,0,0,0,0,0,0,0,0,0,0,0,0,0,0,0,0,0,0,0,0,0,0,0,0,0,0,0,0,0,0,0,0,0,0,0,0,0,0,0,0,0,0,0,0,0,0,0,0,0],"sum_hessian":[1.748E3,1.591E3,1.57E2,1.218E3,3.73E2,2.7E1,1.3E2,1.202E3,1.6E1,3.66E2,7E0,2.3E1,4E0,1.17E2,1.3E1,8.54E2,3.48E2,1E1,6E0,5E0,3.61E2,5E0,2E0,1E1,1.3E1,5.8E1,5.9E1,1.2E1,1E0,8.03E2,5.1E1,2.2E1,3.26E2,1E0,9E0,2E0,3E0,3.14E2,4.7E1,1E0,4E0,1E0,1E0,2E0,8E0,7E0,6E0,8E0,5E1,7E0,5.2E1,4E0,8E0,5.96E2,2.07E2,1.1E1,4E1,2E1,2E0,2.27E2,9.9E1,1E0,8E0,1E0,2E0,2.4E2,7.4E1,3E0,4.4E1,3E0,1E0,1E0,1E0,2E0,6E0,4E0,3E0,3E0,5E0,1.1E1,3.9E1,5E0,2E0,3E1,2.2E1,2E0,2E0,2E0,6E0],"tree_param":{"num_deleted":"0","num_feature":"5","num_nodes":"89","size_leaf_vector":"1"}},{"base_weights":[2.5373869E-2,-5.2450586E-2,5.172876E-1,-8.75004E-2,6.5375E-2,7.6890075E-1,1.8885837E-1,-8.3026476E-2,-4.2496616E-1,1.12137385E-1,-2.8636712E-1,2.809655E-1,9.7138965E-1,4.4084955E-2,6.756318E-1,-9.378623E-2,1.472046E-2,-5.491232E-1,1.9698498E-1,6.0290366E-1,5.8773622E-2,-5.798947E-1,2.0851316E-1,5.808748E-1,-8.4992033E-1,2.2239234E0,5.166751E-1,-6.0277738E-2,5.1425683E-1,1.6125567E0,4.07619E-1,-2.4722648E-1,-8.9439586E-2,1.1385361E0,-5.7586238E-2,-2.2505237E-1,-3.5407537E-1,1.2418341E-1,4.8699913E0,1.8182243E-1,-8.684469E-2,7.1654245E-2,-8.734528E-1,-3.9113123E-2,5.884361E-1,2.884669E-1,1.6257517E0,-3.119997E-1,-1.23096704E-1,4.6079555E0,1.0408022E0,5.862929E-1,-6.534855E-1,2.3216018E-1,-1.9588107E-1,1.169927E0,1.6947435E-1,5.48236E-1,1.1294543E-1,2.7739417E-2,7.159078E-1,1.4103931E-2,-7.795964E-2,-1.1692296E-2,-3.19566E-2,8.333367E-1,-2.1816825E-2,8.481111E-2,-3.575117E-2,-1.3713267E-1,1.3084174E-3,8.34027E-2,-2.6048172E-1,4.458488E-1,1.7456475E0,-2.1575192E-2,1.078179E-1,-4.3114632E-2,1.4246467E-1,1.84938E-1,-1.462447E-1,-2.7367485E-1,-3.208641E-2,4.8125748E-2,-1.4107846E-1,6.013626E-1,4.3609876E-2,1.0522394E0,5.147211E-2,-1.1624336E-2,-4.376918E-2,1.7408046E0,2.047556E-1,1.50033E-1,1.0732682E0,9.864374E-2,4.3042162E-1,-8.324675E-3,8.5353774E-1,-8.584571E-2,1.4059943E-1,4.8767284E-1,-9.790038E-2,1.9346373E-1,-2.3473105E-3,1.3350683E-1,-9.738599E-2,5.7551794E-2,2.9639098E-1],"categories":[],"categories_nodes":[],"categories_segments":[],"categories_sizes":[],"default_left":[0,0,0,0,0,0,0,0,0,0,0,0,0,0,0,0,0,0,0,0,0,0,0,0,0,0,0,0,0,0,0,0,0,0,0,0,0,0,0,0,0,0,0,0,0,0,0,0,0,0,0,0,0,0,0,0,0,0,0,0,0,0,0,0,0,0,0,0,0,0,0,0,0,0,0,0,0,0,0,0,0,0,0,0,0,0,0,0,0,0,0,0,0,0,0,0,0,0,0,0,0,0,0,0,0,0,0,0,0],"id":7,"left_children":[1,3,5,7,9,11,13,15,17,19,21,23,25,27,29,31,33,35,-1,37,39,41,43,45,47,49,51,53,55,57,59,61,63,65,67,-1,69,71,73,75,77,79,81,83,-1,85,87,-1,89,91,93,95,-1,97,99,101,103,-1,-1,105,107,-1,-1,-1,-1,-1,-1,-1,-1,-1,-1,-1,-1,-1,-1,-1,-1,-1,-1,-1,-1,-1,-1,-1,-1,-1,-1,-1,-1,-1,-1,-1,-1,-1,-1,-1,-1,-1,-1,-1,-1,-1,-1,-1,-1,-1,-1,-1,-1],"loss_changes":[6.698396E1,6.245795E0,1.960505E1,1.723629E0,5.7396727E0,1.3065277E1,7.369759E0,1.211925E0,2.374856E0,8.00463E0,6.0766163E0,1.4399387E1,5.295775E1,4.0546074E0,5.369281E0,6.6951656E-1,9.410394E0,2.8338623E-1,0E0,6.0677467E1,4.9970384E0,5.0355415E0,7.0219045E0,9.613523E0,1.1153626E0,6.571899E1,1.4597931E1,2.7420537E0,3.1926813E0,6.4013004E-1,2.3223934E0,1.1634612E-1,8.665371E-1,1.4100924E1,2.317951E0,0E0,3.3437288E-1,4.51601E0,9.843521E-1,6.829409E0,4.157315E0,3.0421007E0,4.3770695E-1,1.3658592E0,0E0,6.3390355E0,1.8552631E1,0E0,1.164116E-4,3.3558136E1,2.2899727E1,1.4820309E1,0E0,1.5019887E1,2.9536114E0,3.9393325E0,9.322208E-1,0E0,0E0,1.6148003E0,1.3788395E0,0E0,0E0,0E0,0E0,0E0,0E0,0E0,0E0,0E0,0E0,0E0,0E0,0E0,0E0,0E0,0E0,0E0,0E0,0E0,0E0,0E0,0E0,0E0,0E0,0E0,0E0,0E0,0E0,0E0,0E0,0E0,0E0,0E0,0E0,0E0,0E0,0E0,0E0,0E0,0E0,0E0,0E0,0E0,0E0,0E0,0E0,0E0,0E0],"parents":[2147483647,0,0,1,1,2,2,3,3,4,4,5,5,6,6,7,7,8,8,9,9,10,10,11,11,12,12,13,13,14,14,15,15,16,16,17,17,19,19,20,20,21,21,22,22,23,23,24,24,25,25,26,26,27,27,28,28,29,29,30,30,31,31,32,32,33,33,34,34,36,36,37,37,38,38,39,39,40,40,41,41,42,42,43,43,45,45,46,46,48,48,49,49,50,50,51,51,53,53,54,54,55,55,56,56,59,59,60,60],"right_children":[2,4,6,8,10,12,14,16,18,20,22,24,26,28,30,32,34,36,-1,38,40,42,44,46,48,50,52,54,56,58,60,62,64,66,68,-1,70,72,74,76,78,80,82,84,-1,86,88,-1,90,92,94,96,-1,98,100,102,104,-1,-1,106,108,-1,-1,-1,-1,-1,-1,-1,-1,-1,-1,-1,-1,-1,-1,-1,-1,-1,-1,-1,-1,-1,-1,-1,-1,-1,-1,-1,-1,-1,-1,-1,-1,-1,-1,-1,-1,-1,-1,-1,-1,-1,-1,-1,-1,-1,-1,-1,-1],"split_conditions":[2.99E0,1.11E0,2.1394121E2,1.0766666E0,1.7437002E1,4.8494997E0,1.698075E1,8.1666666E-1,2.3688984E1,1.1808878E1,1.9820333E1,2.046941E1,9.439082E0,8.843333E0,1.7437002E1,1.3398308E1,8.266667E-1,3.4140835E0,1.9698498E-1,2E0,2.5015413E2,1.58E0,2.3188583E1,1.9803272E1,4.059916E0,1E-1,1.467E1,2.71825E0,2.3545401E2,4.9E0,2.5826144E2,7.9526596E0,1.628972E2,1.9707729E2,-7.4841666E-1,-2.2505237E-1,1.662249E1,2.71E0,1.8766667E0,1.2200534E2,3.4005957E2,7E-1,2.6166666E0,4E-1,5.884361E-1,7.9526596E0,2.001583E0,-3.119997E-1,8.843333E0,7.096667E0,1.467E1,7.443333E0,-6.534855E-1,2.5974166E0,3.2054163E2,1.1093333E1,1.5472672E1,5.48236E-1,1.1294543E-1,2.2233557E2,1.8566168E1,1.4103931E-2,-7.795964E-2,-1.1692296E-2,-3.19566E-2,8.333367E-1,-2.1816825E-2,8.481111E-2,-3.575117E-2,-1.3713267E-1,1.3084174E-3,8.34027E-2,-2.6048172E-1,4.458488E-1,1.7456475E0,-2.1575192E-2,1.078179E-1,-4.3114632E-2,1.4246467E-1,1.84938E-1,-1.462447E-1,-2.7367485E-1,-3.208641E-2,4.8125748E-2,-1.4107846E-1,6.013626E-1,4.3609876E-2,1.0522394E0,5.147211E-2,-1.1624336E-2,-4.376918E-2,1.7408046E0,2.047556E-1,1.50033E-1,1.0732682E0,9.864374E-2,4.3042162E-1,-8.324675E-3,8.5353774E-1,-8.584571E-2,1.4059943E-1,4.8767284E-1,-9.790038E-2,1.9346373E-1,-2.3473105E-3,1.3350683E-1,-9.738599E-2,5.7551794E-2,2.9639098E-1],"split_indices":[0,0,4,0,1,1,1,0,3,3,1,3,1,0,1,4,0,1,0,2,4,0,3,3,1,2,0,1,4,0,4,3,4,4,1,0,3,0,0,4,4,2,0,2,0,3,1,0,0,0,0,0,0,1,4,0,3,0,0,4,1,0,0,0,0,0,0,0,0,0,0,0,0,0,0,0,0,0,0,0,0,0,0,0,0,0,0,0,0,0,0,0,0,0,0,0,0,0,0,0,0,0,0,0,0,0,0,0,0],"split_type":[0,0,0,0,0,0,0,0,0,0,0,0,0,0,0,0,0,0,0,0,0,0,0,0,0,0,0,0,0,0,0,0,0,0,0,0,0,0,0,0,0,0,0,0,0,0,0,0,0,0,0,0,0,0,0,0,0,0,0,0,0,0,0,0,0,0,0,0,0,0,0,0,0,0,0,0,0,0,0,0,0,0,0,0,0,0,0,0,0,0,0,0,0,0,0,0,0,0,0,0,0,0,0,0,0,0,0,0,0],"sum_hessian":[1.748E3,1.51E3,2.38E2,1.164E3,3.46E2,1.34E2,1.04E2,1.15E3,1.4E1,3.06E2,4E1,4E1,9.4E1,8.1E1,2.3E1,1.036E3,1.14E2,1.3E1,1E0,2.9E1,2.77E2,2.5E1,1.5E1,3.2E1,8E0,2.4E1,7E1,6.7E1,1.4E1,4E0,1.9E1,2.7E1,1.009E3,6E0,1.08E2,5E0,8E0,2.7E1,2E0,1.5E2,1.27E2,8E0,1.7E1,1.4E1,1E0,2.6E1,6E0,6E0,2E0,7E0,1.7E1,6.9E1,1E0,2.1E1,4.6E1,4E0,1E1,3E0,1E0,9E0,1E1,1E0,2.6E1,2.56E2,7.53E2,2E0,4E0,1.6E1,9.2E1,6E0,2E0,2.4E1,3E0,1E0,1E0,6.2E1,8.8E1,1.16E2,1.1E1,4E0,4E0,1.6E1,1E0,1E1,4E0,1E0,2.5E1,2E0,4E0,1E0,1E0,5E0,2E0,1.5E1,2E0,5.4E1,1.5E1,2E1,1E0,4.1E1,5E0,3E0,1E0,2E0,8E0,4E0,5E0,4E0,6E0],"tree_param":{"num_deleted":"0","num_feature":"5","num_nodes":"109","size_leaf_vector":"1"}},{"base_weights":[2.3465222E-2,-3.471831E-2,3.9121354E-1,-6.052628E-2,5.6760125E-2,5.710137E-1,1.563161E-1,-1.5268381E-1,-5.304424E-2,1.9486824E-1,-3.9572723E-2,3.8914308E-1,8.92547E-1,4.8918672E-2,5.1674414E-1,-1.0750841E-1,-3.8378888E-1,-2.6667174E-2,-9.359064E-2,9.490331E-2,1.7949396E0,-8.93547E-1,2.0650188E-2,5.778987E-1,-3.77012E-1,1.5411257E0,4.5202896E-1,-5.416606E-1,1.0267046E-1,1.261026E0,3.0483648E-1,-1.8434104E-2,-2.2031711E-1,-4.2266893E-1,1.8247783E-2,-1.0539748E-1,1.7820088E-3,-5.4095495E-3,-1.09279305E-1,2.6813486E-1,-1.9693117E-1,5.2774608E-2,1.404287E0,-3.9842397E-1,-2.0814195E-1,-1.0111394E-1,1.3458896E-1,3.278589E-1,1.7799394E0,-1.5411456E0,1.8928133E-1,1.1412549E-1,1.8015553E0,-9.357899E-1,9.150951E-1,-6.6751575E-1,-4.540453E-2,-2.2526266E-1,2.0097768E-1,1.4162765E0,9.600363E-2,1.8115856E-1,2.8358755E-1,-1.9192208E-2,1.324721E-1,-6.906853E-2,1.4526666E-2,-8.0833614E-2,-1.5465337E-1,-4.8492473E-2,9.549455E-3,2.380246E-1,-3.4164463E-3,-9.483848E-3,1.22593336E-1,-2.88004E-2,-5.849078E-2,3.0356377E-2,3.2153767E-1,-3.133885E-2,-3.6332533E-1,4.229444E-1,-1.501789E-1,2.0352745E-2,-8.62095E-2,7.4584745E-2,-5.459058E-2,4.6363585E-2,4.8540387E-1,1.1746036E0,1.8992978E-1,-5.6019557E-1,-1.7776E-1,1.3282862E-1,-9.145208E-2,2.942073E-1,-1.50488E-1,1.391906E-1,7.1021116E-1,1.13696985E-1,-5.4013675E-1,-3.2473585E-1,3.4706494E-1,-2.228357E-1,-5.496544E-2,-1.2939547E-1,1.1902364E-1,-4.7942484E-3,1.2779059E-1,4.9020994E-1,1.14451006E-1,1.2129009E-2,1.6169004E-1],"categories":[],"categories_nodes":[],"categories_segments":[],"categories_sizes":[],"default_left":[0,0,0,0,0,0,0,0,0,0,0,0,0,0,0,0,0,0,0,0,0,0,0,0,0,0,0,0,0,0,0,0,0,0,0,0,0,0,0,0,0,0,0,0,0,0,0,0,0,0,0,0,0,0,0,0,0,0,0,0,0,0,0,0,0,0,0,0,0,0,0,0,0,0,0,0,0,0,0,0,0,0,0,0,0,0,0,0,0,0,0,0,0,0,0,0,0,0,0,0,0,0,0,0,0,0,0,0,0,0,0,0,0],"id":8,"left_children":[1,3,5,7,9,11,13,15,17,19,21,23,25,27,29,31,33,35,37,39,41,43,45,47,49,51,53,55,57,59,61,63,65,67,-1,69,71,73,75,77,79,81,-1,-1,-1,83,85,87,89,91,93,95,97,99,101,103,-1,105,107,109,-1,111,-1,-1,-1,-1,-1,-1,-1,-1,-1,-1,-1,-1,-1,-1,-1,-1,-1,-1,-1,-1,-1,-1,-1,-1,-1,-1,-1,-1,-1,-1,-1,-1,-1,-1,-1,-1,-1,-1,-1,-1,-1,-1,-1,-1,-1,-1,-1,-1,-1,-1,-1],"loss_changes":[3.7436752E1,3.570715E0,1.000481E1,8.048525E-1,4.4380593E0,7.5471306E0,4.039171E0,8.774824E-1,1.1653931E0,2.174294E1,1.0149929E1,1.2944089E1,1.3017471E1,2.6586773E0,3.4008503E0,7.4956536E-1,2.6772237E-1,1.4851837E0,5.9428906E-1,6.624946E0,3.9976303E1,2.068882E-1,2.5802348E0,2.0756054E1,1.215805E1,6.855427E0,2.0135893E1,2.4283218E-1,2.4953754E0,2.7723932E-1,1.4129559E0,9.29044E-1,9.9045515E-2,4.6031E-2,0E0,1.3635695E0,5.096894E0,7.2899014E-1,3.9657593E-1,1.0893337E1,4.468563E0,5.211427E0,0E0,0E0,0E0,2.851643E0,3.5104623E0,1.3166019E1,2.6908825E1,7.50021E-1,1.7632254E0,2.626299E0,1.1010841E1,9.777117E0,1.2360886E1,4.6173334E-2,0E0,2.4781518E0,2.886815E0,2.779255E-1,0E0,8.8457835E-1,0E0,0E0,0E0,0E0,0E0,0E0,0E0,0E0,0E0,0E0,0E0,0E0,0E0,0E0,0E0,0E0,0E0,0E0,0E0,0E0,0E0,0E0,0E0,0E0,0E0,0E0,0E0,0E0,0E0,0E0,0E0,0E0,0E0,0E0,0E0,0E0,0E0,0E0,0E0,0E0,0E0,0E0,0E0,0E0,0E0,0E0,0E0,0E0,0E0,0E0,0E0],"parents":[2147483647,0,0,1,1,2,2,3,3,4,4,5,5,6,6,7,7,8,8,9,9,10,10,11,11,12,12,13,13,14,14,15,15,16,16,17,17,18,18,19,19,20,20,21,21,22,22,23,23,24,24,25,25,26,26,27,27,28,28,29,29,30,30,31,31,32,32,33,33,35,35,36,36,37,37,38,38,39,39,40,40,41,41,45,45,46,46,47,47,48,48,49,49,50,50,51,51,52,52,53,53,54,54,55,55,57,57,58,58,59,59,61,61],"right_children":[2,4,6,8,10,12,14,16,18,20,22,24,26,28,30,32,34,36,38,40,42,44,46,48,50,52,54,56,58,60,62,64,66,68,-1,70,72,74,76,78,80,82,-1,-1,-1,84,86,88,90,92,94,96,98,100,102,104,-1,106,108,110,-1,112,-1,-1,-1,-1,-1,-1,-1,-1,-1,-1,-1,-1,-1,-1,-1,-1,-1,-1,-1,-1,-1,-1,-1,-1,-1,-1,-1,-1,-1,-1,-1,-1,-1,-1,-1,-1,-1,-1,-1,-1,-1,-1,-1,-1,-1,-1,-1,-1,-1,-1,-1],"split_conditions":[2.99E0,1.1566666E0,2.1394121E2,4.3941982E1,2.0193353E2,6.9700003E0,1.698075E1,6.466667E-1,2.5448679E2,1.9367131E2,2.1057391E2,5.366667E0,5E-1,2.2233557E2,1.7437002E1,3.0265834E0,1.949533E1,1.3830749E1,-2.9921665E0,1.9433334E0,1.8766667E0,2.4745E0,1E-1,4.9E0,5E-1,1.191812E1,1.2000002E0,1.5000001E0,3.41E0,4.9E0,1.03E1,5.433333E-1,1.7345335E1,1.4654254E1,1.8247783E-2,1.4826581E1,1.3910169E1,9.7333336E-1,8.366667E-1,1.7108224E2,1.79837E2,2.3661668E0,1.404287E0,-3.9842397E-1,-2.0814195E-1,2.8163626E2,2E0,2.0393565E2,5.0233335E0,5.7599998E0,1.6876558E2,1.1093333E1,4.8494997E0,2.9203331E0,7.443333E0,5.366667E0,-4.540453E-2,3.215448E2,1.764E1,1.1200001E1,9.600363E-2,2.0278667E1,2.8358755E-1,-1.9192208E-2,1.324721E-1,-6.906853E-2,1.4526666E-2,-8.0833614E-2,-1.5465337E-1,-4.8492473E-2,9.549455E-3,2.380246E-1,-3.4164463E-3,-9.483848E-3,1.22593336E-1,-2.88004E-2,-5.849078E-2,3.0356377E-2,3.2153767E-1,-3.133885E-2,-3.6332533E-1,4.229444E-1,-1.501789E-1,2.0352745E-2,-8.62095E-2,7.4584745E-2,-5.459058E-2,4.6363585E-2,4.8540387E-1,1.1746036E0,1.8992978E-1,-5.6019557E-1,-1.7776E-1,1.3282862E-1,-9.145208E-2,2.942073E-1,-1.50488E-1,1.391906E-1,7.1021116E-1,1.13696985E-1,-5.4013675E-1,-3.2473585E-1,3.4706494E-1,-2.228357E-1,-5.496544E-2,-1.2939547E-1,1.1902364E-1,-4.7942484E-3,1.2779059E-1,4.9020994E-1,1.14451006E-1,1.2129009E-2,1.6169004E-1],"split_indices":[0,0,4,4,4,0,1,0,4,4,4,0,2,4,1,1,1,3,1,0,0,1,2,0,2,3,2,2,0,0,2,0,1,3,0,1,3,0,0,4,4,1,0,0,0,4,2,4,0,0,4,0,1,1,0,0,0,4,3,2,0,1,0,0,0,0,0,0,0,0,0,0,0,0,0,0,0,0,0,0,0,0,0,0,0,0,0,0,0,0,0,0,0,0,0,0,0,0,0,0,0,0,0,0,0,0,0,0,0,0,0,0,0],"split_type":[0,0,0,0,0,0,0,0,0,0,0,0,0,0,0,0,0,0,0,0,0,0,0,0,0,0,0,0,0,0,0,0,0,0,0,0,0,0,0,0,0,0,0,0,0,0,0,0,0,0,0,0,0,0,0,0,0,0,0,0,0,0,0,0,0,0,0,0,0,0,0,0,0,0,0,0,0,0,0,0,0,0,0,0,0,0,0,0,0,0,0,0,0,0,0,0,0,0,0,0,0,0,0,0,0,0,0,0,0,0,0,0,0],"sum_hessian":[1.748E3,1.51E3,2.38E2,1.178E3,3.32E2,1.34E2,1.04E2,8.7E1,1.091E3,1.36E2,1.96E2,8.7E1,4.7E1,8.1E1,2.3E1,7.4E1,1.3E1,6.62E2,4.29E2,1.29E2,7E0,1.2E1,1.84E2,7E1,1.7E1,1.8E1,2.9E1,6E0,7.5E1,4E0,1.9E1,4.2E1,3.2E1,1.2E1,1E0,1.75E2,4.87E2,6.5E1,3.64E2,8.1E1,4.8E1,5E0,2E0,2E0,1E1,8.9E1,9.5E1,5.9E1,1.1E1,5E0,1.2E1,3E0,1.5E1,7E0,2.2E1,4E0,2E0,1.7E1,5.8E1,3E0,1E0,1.7E1,2E0,3.9E1,3E0,3.1E1,1E0,6E0,6E0,1.24E2,5.1E1,7E0,4.8E2,6.2E1,3E0,3.17E2,4.7E1,6.8E1,1.3E1,4.5E1,3E0,1E0,4E0,4.7E1,4.2E1,7E1,2.5E1,5.3E1,6E0,3E0,8E0,3E0,2E0,8E0,4E0,1E0,2E0,5E0,1E1,3E0,4E0,2E0,2E1,3E0,1E0,1.3E1,4E0,3E1,2.8E1,2E0,1E0,1.3E1,4E0],"tree_param":{"num_deleted":"0","num_feature":"5","num_nodes":"113","size_leaf_vector":"1"}},{"base_weights":[1.8587492E-2,-2.9402649E-2,2.631554E-1,-2.250165E-2,-2.0905091E-1,4.0878478E-1,1.0629885E-2,-5.0689884E-2,2.8585218E-2,3.1338534E-1,-2.9352835E-1,2.879635E-1,1.3730389E0,-2.4824925E-1,3.168413E-1,-4.623171E-2,-1.946113E-1,-2.9296273E-1,5.7058986E-2,1.4991596E-2,8.0571103E-1,-1.2871577E-1,-6.728211E-1,2.3713784E-1,1.846627E0,3.332926E0,2.9502112E-1,-5.345175E-1,-1.5181832E-2,4.4372376E-2,1.2540637E0,-5.243466E-2,6.0415152E-2,-2.229761E-1,8.143106E-2,-2.1472004E-1,-2.8890824E-1,2.0808175E-2,5.127807E-1,-3.5750363E-2,1.888737E-1,7.459456E-2,2.8797543E-1,-1.6026476E-1,1.3686012E-1,-9.8690766E-1,-2.177478E-1,5.1100856E-1,2.6871733E-2,1.7042673E-1,7.5288683E-1,1.4932537E-1,4.367446E0,-1.6196178E-1,1.4779688E0,8.312618E-2,-1.3843158E0,7.6449794E-1,-1.4908586E-1,1.784105E0,-2.0542863E-1,9.311076E-1,1.7249176E-1,-2.538553E-2,-1.1537207E-2,1.5508603E-1,-9.639423E-4,4.8121873E-2,-7.34183E-2,-8.157697E-2,6.5161705E-2,1.6001157E-2,-1.1134687E-1,5.2820075E-1,1.0056646E-1,1.3295532E-2,7.169763E-2,5.0940886E-2,-5.611109E-2,-3.1878212E-1,-6.85518E-2,-9.4394065E-2,-1.992353E-2,8.348197E-2,4.7799355E-1,-1.4038056E-1,1.0777599E-1,1.4952421E0,2.8509995E-1,2.6382947E-1,-1.9872396E-1,-3.6187723E-2,6.153127E-1,-1.628562E-1,1.5389991E-1,-5.6937647E-1,-1.9199724E-1,3.9983356E-1,-1.7584551E-2,-1.4708761E-2,-1.5733948E-1,1.3003726E-1,7.620153E-1,1.2824044E-1,-1.1367587E-1,2.1117662E-1,-8.6145245E-2],"categories":[],"categories_nodes":[],"categories_segments":[],"categories_sizes":[],"default_left":[0,0,0,0,0,0,0,0,0,0,0,0,0,0,0,0,0,0,0,0,0,0,0,0,0,0,0,0,0,0,0,0,0,0,0,0,0,0,0,0,0,0,0,0,0,0,0,0,0,0,0,0,0,0,0,0,0,0,0,0,0,0,0,0,0,0,0,0,0,0,0,0,0,0,0,0,0,0,0,0,0,0,0,0,0,0,0,0,0,0,0,0,0,0,0,0,0,0,0,0,0,0,0,0,0,0,0],"id":9,"left_children":[1,3,5,7,9,11,13,15,17,19,21,23,25,27,29,31,33,35,37,39,41,43,45,47,49,51,53,55,57,59,61,63,65,67,-1,69,-1,71,73,-1,75,-1,-1,77,-1,79,81,83,85,-1,-1,-1,87,89,91,93,95,97,99,101,103,-1,105,-1,-1,-1,-1,-1,-1,-1,-1,-1,-1,-1,-1,-1,-1,-1,-1,-1,-1,-1,-1,-1,-1,-1,-1,-1,-1,-1,-1,-1,-1,-1,-1,-1,-1,-1,-1,-1,-1,-1,-1,-1,-1,-1,-1],"loss_changes":[2.0535482E1,1.8090541E0,1.0550121E1,2.0319176E0,2.4752274E0,2.0808054E1,8.481461E0,5.7424164E-1,4.6128683E0,1.1631763E0,2.8514714E0,1.2474971E1,4.1272575E1,3.861634E0,1.24571905E1,5.8729446E-1,4.1744685E-1,1.9427526E0,7.6216993E0,1.6247526E-1,1.9026756E-2,7.005322E-1,1.7861571E0,9.1424E0,2.8126373E0,1.8357407E1,7.80759E0,1.3761759E1,3.5592508E0,1.7315395E1,2.1470203E1,3.7236428E-1,1.4250498E0,2.5607383E-1,0E0,9.9794936E-1,0E0,5.489639E0,6.943302E0,0E0,1.114288E-2,0E0,0E0,3.2336855E-1,0E0,2.1647215E-1,8.1754E-2,1.6937042E1,1.5134395E1,0E0,0E0,0E0,5.799988E0,6.3153806E0,3.9118576E0,4.5839605E0,2.9905338E0,2.4169168E0,1.063502E0,4.004076E0,4.0050397E0,0E0,2.1562755E0,0E0,0E0,0E0,0E0,0E0,0E0,0E0,0E0,0E0,0E0,0E0,0E0,0E0,0E0,0E0,0E0,0E0,0E0,0E0,0E0,0E0,0E0,0E0,0E0,0E0,0E0,0E0,0E0,0E0,0E0,0E0,0E0,0E0,0E0,0E0,0E0,0E0,0E0,0E0,0E0,0E0,0E0,0E0,0E0],"parents":[2147483647,0,0,1,1,2,2,3,3,4,4,5,5,6,6,7,7,8,8,9,9,10,10,11,11,12,12,13,13,14,14,15,15,16,16,17,17,18,18,19,19,20,20,21,21,22,22,23,23,24,24,25,25,26,26,27,27,28,28,29,29,30,30,31,31,32,32,33,33,35,35,37,37,38,38,40,40,43,43,45,45,46,46,47,47,48,48,52,52,53,53,54,54,55,55,56,56,57,57,58,58,59,59,60,60,62,62],"right_children":[2,4,6,8,10,12,14,16,18,20,22,24,26,28,30,32,34,36,38,40,42,44,46,48,50,52,54,56,58,60,62,64,66,68,-1,70,-1,72,74,-1,76,-1,-1,78,-1,80,82,84,86,-1,-1,-1,88,90,92,94,96,98,100,102,104,-1,106,-1,-1,-1,-1,-1,-1,-1,-1,-1,-1,-1,-1,-1,-1,-1,-1,-1,-1,-1,-1,-1,-1,-1,-1,-1,-1,-1,-1,-1,-1,-1,-1,-1,-1,-1,-1,-1,-1,-1,-1,-1,-1,-1,-1],"split_conditions":[2.5666666E0,9.8E0,1.7713316E1,6.433333E-1,5.156663E1,1.725373E1,1.5000001E0,6.066667E-1,4.2544075E1,4.3941982E1,1.0233333E0,1.467E1,1E-1,2.2552817E2,1.3074502E1,5.4333335E-1,3.3211185E2,5.400001E0,4.9999995E0,5.1E-1,3.9000002E-1,9.0666664E-1,1.8590604E2,6.403666E0,1E-1,2.134917E0,1.764E1,1.6366661E2,2.3545401E2,2.1E0,1.4532833E1,1.6666667E-1,6.2571323E1,9.3876505E0,8.143106E-2,1.825026E1,-2.8890824E-1,3E0,-1.9425006E-1,-3.5750363E-2,1.3333333E0,7.459456E-2,2.8797543E-1,1.1E-1,1.3686012E-1,3.1328272E1,1.1014083E1,5.1745E0,1.4947415E1,1.7042673E-1,7.5288683E-1,1.4932537E-1,8.714083E0,1.7865529E2,3.6233335E0,1E-1,1.9840375E2,1.12786665E1,5E-1,6.4466667E0,1.35999E2,9.311076E-1,1.5926583E1,-2.538553E-2,-1.1537207E-2,1.5508603E-1,-9.639423E-4,4.8121873E-2,-7.34183E-2,-8.157697E-2,6.5161705E-2,1.6001157E-2,-1.1134687E-1,5.2820075E-1,1.0056646E-1,1.3295532E-2,7.169763E-2,5.0940886E-2,-5.611109E-2,-3.1878212E-1,-6.85518E-2,-9.4394065E-2,-1.992353E-2,8.348197E-2,4.7799355E-1,-1.4038056E-1,1.0777599E-1,1.4952421E0,2.8509995E-1,2.6382947E-1,-1.9872396E-1,-3.6187723E-2,6.153127E-1,-1.628562E-1,1.5389991E-1,-5.6937647E-1,-1.9199724E-1,3.9983356E-1,-1.7584551E-2,-1.4708761E-2,-1.5733948E-1,1.3003726E-1,7.620153E-1,1.2824044E-1,-1.1367587E-1,2.1117662E-1,-8.6145245E-2],"split_indices":[0,2,3,0,4,3,2,0,4,4,0,0,2,4,1,0,4,2,2,0,0,0,4,1,2,1,3,4,4,2,1,0,4,3,0,3,0,2,1,0,0,0,0,0,0,3,1,1,1,0,0,0,1,4,0,2,4,1,2,0,4,0,1,0,0,0,0,0,0,0,0,0,0,0,0,0,0,0,0,0,0,0,0,0,0,0,0,0,0,0,0,0,0,0,0,0,0,0,0,0,0,0,0,0,0,0,0],"split_type":[0,0,0,0,0,0,0,0,0,0,0,0,0,0,0,0,0,0,0,0,0,0,0,0,0,0,0,0,0,0,0,0,0,0,0,0,0,0,0,0,0,0,0,0,0,0,0,0,0,0,0,0,0,0,0,0,0,0,0,0,0,0,0,0,0,0,0,0,0,0,0,0,0,0,0,0,0,0,0,0,0,0,0,0,0,0,0,0,0,0,0,0,0,0,0,0,0,0,0,0,0,0,0,0,0,0,0],"sum_hessian":[1.748E3,1.462E3,2.86E2,1.409E3,5.3E1,1.81E2,1.05E2,9.08E2,5.01E2,7E0,4.6E1,1.62E2,1.9E1,5.7E1,4.8E1,8.82E2,2.6E1,4E1,4.61E2,5E0,2E0,3.3E1,1.3E1,1.58E2,4E0,6E0,1.3E1,2.5E1,3.2E1,3.8E1,1E1,8.34E2,4.8E1,2.5E1,1E0,3.7E1,3E0,4.28E2,3.3E1,3E0,2E0,1E0,1E0,3.2E1,1E0,7E0,6E0,6.8E1,9E1,2E0,2E0,2E0,4E0,1E1,3E0,1.5E1,1E1,4E0,2.8E1,4E0,3.4E1,3E0,7E0,2.51E2,5.83E2,5E0,4.3E1,1E0,2.4E1,3.3E1,4E0,3.96E2,3.2E1,3E0,3E1,1E0,1E0,2E0,3E1,6E0,1E0,3E0,3E0,5.7E1,1.1E1,3.6E1,5.4E1,3E0,1E0,3E0,7E0,1E0,2E0,6E0,9E0,5E0,5E0,2E0,2E0,2.3E1,5E0,2E0,2E0,7E0,2.7E1,3E0,4E0],"tree_param":{"num_deleted":"0","num_feature":"5","num_nodes":"107","size_leaf_vector":"1"}},{"base_weights":[1.6368585E-2,-6.6548027E-3,3.1814003E-1,-2.8422203E-2,8.402928E-2,1.5199474E0,2.4415027E-1,-2.1203598E-2,-1.18622236E-1,6.3269995E-2,8.7275803E-1,1.2375026E0,-3.470787E-1,7.911109E-1,8.861129E-2,-3.262517E-2,1.6913219E-1,3.9833322E-2,-1.9365187E-1,4.916814E-1,5.2798964E-2,4.3707398E-1,4.3596202E-1,-5.340916E-1,6.014593E-2,-2.3646078E-1,1.3490288E0,1.7620297E-1,-5.8036333E-1,-3.065102E-2,-4.0326327E-1,7.5597964E-2,6.5544003E-1,-1.1873137E-1,1.8672755E-1,-1.4067774E-1,-6.999468E-1,-2.8587788E-2,2.7278957E-1,-2.7246416E-2,2.7314296E-1,5.5696145E-2,-2.507674E-1,-4.4853815E-1,2.5083533E-1,9.540805E-1,7.182272E-1,-1.2692137E-1,4.2277953E-1,-8.876091E-1,5.376574E-2,-1.015747E-2,7.5220264E-2,-5.5256706E-2,-1.6828237E-1,3.9759424E-2,-4.7530685E-2,3.2455352E-1,-1.08369E-1,8.847203E-2,-7.106144E-2,7.4358447E-3,1.7112891E-1,-4.5459375E-2,7.657993E-2,-2.7551392E-1,-5.261624E-2,-1.4787998E-2,1.869851E-1,7.763136E-1,2.7366403E-2,-8.014923E-2,4.253426E-2,6.0413077E-2,-1.6648489E-1,6.8259954E-2,4.9443695E-1,-1.136989E-2,-2.622394E-1,1.9303665E-1,-1.307998E-1,-2.1990871E-2,-3.440482E-1],"categories":[],"categories_nodes":[],"categories_segments":[],"categories_sizes":[],"default_left":[0,0,0,0,0,0,0,0,0,0,0,0,0,0,0,0,0,0,0,0,0,0,0,0,0,0,0,0,0,0,0,0,0,0,0,0,0,0,0,0,0,0,0,0,0,0,0,0,0,0,0,0,0,0,0,0,0,0,0,0,0,0,0,0,0,0,0,0,0,0,0,0,0,0,0,0,0,0,0,0,0,0,0],"id":10,"left_children":[1,3,5,7,9,11,13,15,17,19,21,-1,23,25,27,29,31,33,35,-1,37,39,-1,41,-1,43,45,47,49,51,53,55,57,59,61,63,65,67,69,71,-1,-1,-1,73,-1,75,-1,77,79,81,-1,-1,-1,-1,-1,-1,-1,-1,-1,-1,-1,-1,-1,-1,-1,-1,-1,-1,-1,-1,-1,-1,-1,-1,-1,-1,-1,-1,-1,-1,-1,-1,-1],"loss_changes":[1.2153821E1,3.2120423E0,1.0655164E1,8.5175216E-1,5.102415E0,3.5477722E1,9.968595E0,2.6490214E0,1.1609335E0,4.995116E0,1.3879786E0,0E0,6.1908674E-1,1.522481E1,5.5517464E0,8.27626E-1,3.0890136E0,7.6752204E-1,1.6716881E0,0E0,5.504425E0,1.34367E0,0E0,1.0240624E0,0E0,2.6497269E0,4.7325172E0,6.2573586E0,2.7262406E0,1.0400034E0,1.0393983E-1,8.0713356E-1,5.15944E0,8.5173094E-1,1.0421946E0,3.008212E-1,5.264137E-1,3.0676272E0,3.4650196E1,2.0008928E-1,0E0,0E0,0E0,7.3417974E-1,0E0,6.6845665E0,0E0,2.494552E0,8.998091E0,1.604598E0,0E0,0E0,0E0,0E0,0E0,0E0,0E0,0E0,0E0,0E0,0E0,0E0,0E0,0E0,0E0,0E0,0E0,0E0,0E0,0E0,0E0,0E0,0E0,0E0,0E0,0E0,0E0,0E0,0E0,0E0,0E0,0E0,0E0],"parents":[2147483647,0,0,1,1,2,2,3,3,4,4,5,5,6,6,7,7,8,8,9,9,10,10,12,12,13,13,14,14,15,15,16,16,17,17,18,18,20,20,21,21,23,23,25,25,26,26,27,27,28,28,29,29,30,30,31,31,32,32,33,33,34,34,35,35,36,36,37,37,38,38,39,39,43,43,45,45,47,47,48,48,49,49],"right_children":[2,4,6,8,10,12,14,16,18,20,22,-1,24,26,28,30,32,34,36,-1,38,40,-1,42,-1,44,46,48,50,52,54,56,58,60,62,64,66,68,70,72,-1,-1,-1,74,-1,76,-1,78,80,82,-1,-1,-1,-1,-1,-1,-1,-1,-1,-1,-1,-1,-1,-1,-1,-1,-1,-1,-1,-1,-1,-1,-1,-1,-1,-1,-1,-1,-1,-1,-1,-1,-1],"split_conditions":[4.9E0,1.6333333E0,5.0233335E0,6.7000003E0,2.1220333E1,1.8128822E2,1.4002582E2,4.5E0,1.2588224E2,7.9526596E0,1.5141414E1,1.2375026E0,1.2770332E1,7.575806E1,6.8999996E0,1.61E0,1.0233333E0,8.337001E0,1.13E0,4.916814E-1,1.5999999E0,2.2626581E1,4.3596202E-1,1.6182503E0,6.014593E-2,1.2809999E1,4.7999997E0,1.6981165E1,1.5664082E1,1.5566666E0,3.1536665E0,2.4967497E1,5.9E0,-3.7999954E-2,8.266667E-1,3.0827856E1,1.8779152E2,3.4366058E2,2E0,1.7233334E0,2.7314296E-1,5.5696145E-2,-2.507674E-1,1.2770332E1,2.5083533E-1,2.9203331E0,7.182272E-1,1.6746773E1,1.2809999E1,9.541166E0,5.376574E-2,-1.015747E-2,7.5220264E-2,-5.5256706E-2,-1.6828237E-1,3.9759424E-2,-4.7530685E-2,3.2455352E-1,-1.08369E-1,8.847203E-2,-7.106144E-2,7.4358447E-3,1.7112891E-1,-4.5459375E-2,7.657993E-2,-2.7551392E-1,-5.261624E-2,-1.4787998E-2,1.869851E-1,7.763136E-1,2.7366403E-2,-8.014923E-2,4.253426E-2,6.0413077E-2,-1.6648489E-1,6.8259954E-2,4.9443695E-1,-1.136989E-2,-2.622394E-1,1.9303665E-1,-1.307998E-1,-2.1990871E-2,-3.440482E-1],"split_indices":[0,0,0,2,1,4,4,2,4,3,3,0,1,4,2,0,0,1,0,0,2,1,0,1,0,0,2,3,1,0,1,3,2,1,0,3,4,4,2,0,0,0,0,1,0,1,0,3,0,1,0,0,0,0,0,0,0,0,0,0,0,0,0,0,0,0,0,0,0,0,0,0,0,0,0,0,0,0,0,0,0,0,0],"split_type":[0,0,0,0,0,0,0,0,0,0,0,0,0,0,0,0,0,0,0,0,0,0,0,0,0,0,0,0,0,0,0,0,0,0,0,0,0,0,0,0,0,0,0,0,0,0,0,0,0,0,0,0,0,0,0,0,0,0,0,0,0,0,0,0,0,0,0,0,0,0,0,0,0,0,0,0,0,0,0,0,0,0,0],"sum_hessian":[1.748E3,1.625E3,1.23E2,1.311E3,3.14E2,6E0,1.17E2,1.215E3,9.6E1,3.07E2,7E0,2E0,4E0,2.5E1,9.2E1,1.147E3,6.8E1,3.1E1,6.5E1,1E0,3.06E2,5E0,2E0,3E0,1E0,9E0,1.6E1,8.2E1,1E1,1.142E3,5E0,5.8E1,1E1,1.5E1,1.6E1,6E1,5E0,2.24E2,8.2E1,3E0,2E0,1E0,2E0,8E0,1E0,1.3E1,3E0,3.7E1,4.5E1,7E0,3E0,1.13E3,1.2E1,3E0,2E0,4.7E1,1.1E1,7E0,3E0,3E0,1.2E1,1.2E1,4E0,5.9E1,1E0,3E0,2E0,2.18E2,6E0,5E0,7.7E1,1E0,2E0,1E0,7E0,7E0,6E0,3.4E1,3E0,3.6E1,9E0,2E0,5E0],"tree_param":{"num_deleted":"0","num_feature":"5","num_nodes":"83","size_leaf_vector":"1"}},{"base_weights":[1.3797949E-2,-1.5783401E-2,1.645426E-1,-1.0982396E-1,-8.131817E-3,2.7485535E-1,-2.6414592E-2,-3.8765658E-2,-2.1160227E-1,5.7760287E-2,-3.296702E-2,1.8787584E-1,9.699957E-1,-1.7513089E-1,2.9366496E-1,-6.0334723E-2,2.0448355E-1,-1.5929806E-1,-5.981763E-1,-3.143994E-2,2.400742E-1,-2.7816203E-1,-2.2823706E-2,7.0933694E-1,1.0998382E-1,2.3712487E0,2.0008367E-1,-3.287149E-1,3.9255685E-1,-1.7032603E-2,1.1586063E0,1.7360647E-1,-7.852114E-2,2.405661E-1,-1.9719698E-1,-6.364295E-2,-2.3544522E-1,-8.0190256E-2,1.4699066E-1,8.107973E-2,6.176421E-1,-8.4073536E-2,-8.326113E-1,2.5780976E-1,-3.388845E-2,3.2596052E-1,1.2565298E0,6.8569094E-2,1.2393163E0,3.8037694E-1,3.0915222E0,1.0955521E0,-2.676589E-1,-6.0205257E-1,-1.033969E-1,1.3146026E0,-2.921309E-1,5.136753E-1,-3.2821178E-1,5.9646297E-1,9.72815E-2,2.3357023E-2,8.349081E-2,-3.0229697E-2,2.4433346E-2,-1.0972703E-2,1.6079873E-1,-1.03689216E-1,-3.4618687E-2,-7.647924E-2,-8.034208E-3,7.13426E-1,-9.263827E-3,4.74508E-2,-6.6965275E-2,2.1933268E-1,-1.4186083E-1,1.4626778E-2,-4.5877818E-2,1.1112178E-2,-2.800065E-1,1.679786E-1,-7.708302E-2,-4.3451913E-2,-6.146716E-3,3.5384306E-1,1.1659241E-2,1.0705722E-2,4.6421587E-1,1.3861531E-1,4.8104286E-1,2.7949246E-2,1.4322038E-1,1.0526311E0,2.133794E-1,1.18289E-1,5.850861E-1,3.4644563E-2,-2.6137215E-1,-2.6223806E-1,2.6972056E-3,-8.571438E-3,-1.000965E-1,5.1933515E-1,5.466328E-2,2.3211588E-1,-1.9659254E-1,2.8973314E-1,-2.5894645E-1,-2.3195584E-1,-6.520084E-2,-4.2785242E-2,5.7873186E-2],"categories":[],"categories_nodes":[],"categories_segments":[],"categories_sizes":[],"default_left":[0,0,0,0,0,0,0,0,0,0,0,0,0,0,0,0,0,0,0,0,0,0,0,0,0,0,0,0,0,0,0,0,0,0,0,0,0,0,0,0,0,0,0,0,0,0,0,0,0,0,0,0,0,0,0,0,0,0,0,0,0,0,0,0,0,0,0,0,0,0,0,0,0,0,0,0,0,0,0,0,0,0,0,0,0,0,0,0,0,0,0,0,0,0,0,0,0,0,0,0,0,0,0,0,0,0,0,0,0,0,0,0,0],"id":11,"left_children":[1,3,5,7,9,11,13,15,17,19,21,23,25,27,29,31,-1,33,35,37,39,41,43,45,47,49,51,53,55,57,59,61,63,65,67,-1,-1,69,71,73,75,77,79,81,83,85,-1,87,89,91,93,95,97,99,101,103,105,107,109,-1,111,-1,-1,-1,-1,-1,-1,-1,-1,-1,-1,-1,-1,-1,-1,-1,-1,-1,-1,-1,-1,-1,-1,-1,-1,-1,-1,-1,-1,-1,-1,-1,-1,-1,-1,-1,-1,-1,-1,-1,-1,-1,-1,-1,-1,-1,-1,-1,-1,-1,-1,-1,-1],"loss_changes":[7.8017917E0,1.0518222E0,6.052919E0,7.873386E-1,2.217649E0,1.08220215E1,5.097141E0,1.0666243E0,8.1458664E-1,6.040914E0,2.4409475E0,6.5426626E0,2.110238E1,6.493745E0,9.156729E0,2.901776E-1,0E0,6.6876996E-1,1.9375455E-1,2.1864243E0,7.2737284E0,4.126877E0,2.9461968E0,2.6644604E1,6.6032734E0,8.861862E0,6.157116E0,3.5098476E0,1.048505E1,4.46237E0,7.7308903E0,2.8455436E-2,2.2526667E-1,3.4710798E-1,4.2151487E-1,0E0,0E0,1.8317376E0,2.1503075E1,2.0761657E0,4.8002453E0,2.8182536E-1,9.1069126E-1,5.74247E0,1.3513979E0,4.8549895E0,0E0,6.7041383E0,6.74356E-1,3.9123207E-2,2.470127E0,2.2279458E0,2.4131796E0,4.3303366E0,5.5902946E-1,2.9861746E0,4.3779545E0,7.058289E0,6.706847E-1,0E0,1.4221904E-1,0E0,0E0,0E0,0E0,0E0,0E0,0E0,0E0,0E0,0E0,0E0,0E0,0E0,0E0,0E0,0E0,0E0,0E0,0E0,0E0,0E0,0E0,0E0,0E0,0E0,0E0,0E0,0E0,0E0,0E0,0E0,0E0,0E0,0E0,0E0,0E0,0E0,0E0,0E0,0E0,0E0,0E0,0E0,0E0,0E0,0E0,0E0,0E0,0E0,0E0,0E0,0E0],"parents":[2147483647,0,0,1,1,2,2,3,3,4,4,5,5,6,6,7,7,8,8,9,9,10,10,11,11,12,12,13,13,14,14,15,15,17,17,18,18,19,19,20,20,21,21,22,22,23,23,24,24,25,25,26,26,27,27,28,28,29,29,30,30,31,31,32,32,33,33,34,34,37,37,38,38,39,39,40,40,41,41,42,42,43,43,44,44,45,45,47,47,48,48,49,49,50,50,51,51,52,52,53,53,54,54,55,55,56,56,57,57,58,58,60,60],"right_children":[2,4,6,8,10,12,14,16,18,20,22,24,26,28,30,32,-1,34,36,38,40,42,44,46,48,50,52,54,56,58,60,62,64,66,68,-1,-1,70,72,74,76,78,80,82,84,86,-1,88,90,92,94,96,98,100,102,104,106,108,110,-1,112,-1,-1,-1,-1,-1,-1,-1,-1,-1,-1,-1,-1,-1,-1,-1,-1,-1,-1,-1,-1,-1,-1,-1,-1,-1,-1,-1,-1,-1,-1,-1,-1,-1,-1,-1,-1,-1,-1,-1,-1,-1,-1,-1,-1,-1,-1,-1,-1,-1,-1,-1,-1],"split_conditions":[2.5666666E0,4.2544075E1,1.7713316E1,5.566667E-1,1.8343504E2,1.725373E1,3E0,5.433333E-1,2.2608458E1,1.7713316E1,1.9019803E2,-3.8175002E-1,1E-1,1.0653334E1,1.3074502E1,8.885877E0,2.0448355E-1,2.0311255E0,8E-1,1.9000001E0,8.666667E-1,5.866667E-1,1.9707729E2,8.000001E-1,1.467E1,2.134917E0,2.71825E0,2.207299E2,2.1829777E1,5.5000005E0,1.4947415E1,4.0666667E-1,4.5666668E-1,1E-1,2.1435295E1,-6.364295E-2,-2.3544522E-1,1.6182503E0,2E0,2.3665035E1,1.8459917E1,1.8518163E2,3E-1,8.000001E-1,2.1211613E2,1.5982925E2,1.2565298E0,1.6300001E1,1E-1,2.9233332E0,8.714083E0,2.0536666E0,8E-1,1.3814084E1,5.09E0,1.2809999E1,1.1093333E1,7.443333E0,8.371759E1,5.9646297E-1,3.4999998E0,2.3357023E-2,8.349081E-2,-3.0229697E-2,2.4433346E-2,-1.0972703E-2,1.6079873E-1,-1.03689216E-1,-3.4618687E-2,-7.647924E-2,-8.034208E-3,7.13426E-1,-9.263827E-3,4.74508E-2,-6.6965275E-2,2.1933268E-1,-1.4186083E-1,1.4626778E-2,-4.5877818E-2,1.1112178E-2,-2.800065E-1,1.679786E-1,-7.708302E-2,-4.3451913E-2,-6.146716E-3,3.5384306E-1,1.1659241E-2,1.0705722E-2,4.6421587E-1,1.3861531E-1,4.8104286E-1,2.7949246E-2,1.4322038E-1,1.0526311E0,2.133794E-1,1.18289E-1,5.850861E-1,3.4644563E-2,-2.6137215E-1,-2.6223806E-1,2.6972056E-3,-8.571438E-3,-1.000965E-1,5.1933515E-1,5.466328E-2,2.3211588E-1,-1.9659254E-1,2.8973314E-1,-2.5894645E-1,-2.3195584E-1,-6.520084E-2,-4.2785242E-2,5.7873186E-2],"split_indices":[0,4,3,0,4,3,2,0,3,3,4,1,2,0,1,3,0,4,0,2,0,0,4,2,0,1,1,4,3,2,1,0,0,2,4,0,0,1,2,3,1,4,2,2,4,4,0,2,2,0,1,1,2,1,0,0,0,0,4,0,2,0,0,0,0,0,0,0,0,0,0,0,0,0,0,0,0,0,0,0,0,0,0,0,0,0,0,0,0,0,0,0,0,0,0,0,0,0,0,0,0,0,0,0,0,0,0,0,0,0,0,0,0],"split_type":[0,0,0,0,0,0,0,0,0,0,0,0,0,0,0,0,0,0,0,0,0,0,0,0,0,0,0,0,0,0,0,0,0,0,0,0,0,0,0,0,0,0,0,0,0,0,0,0,0,0,0,0,0,0,0,0,0,0,0,0,0,0,0,0,0,0,0,0,0,0,0,0,0,0,0,0,0,0,0,0,0,0,0,0,0,0,0,0,0,0,0,0,0,0,0,0,0,0,0,0,0,0,0,0,0,0,0,0,0,0,0,0,0],"sum_hessian":[1.748E3,1.462E3,2.86E2,1.09E2,1.353E3,1.81E2,1.05E2,6.5E1,4.4E1,3.7E2,9.83E2,1.62E2,1.9E1,7.2E1,3.3E1,6.4E1,1E0,4E1,4E0,2.49E2,1.21E2,3.8E1,9.45E2,2E1,1.42E2,6E0,1.3E1,5.7E1,1.5E1,2.5E1,8E0,4E0,6E1,3E0,3.7E1,2E0,2E0,1.96E2,5.3E1,8.6E1,3.5E1,2.9E1,9E0,3.5E1,9.1E2,1.9E1,1E0,1.38E2,4E0,2E0,4E0,4E0,9E0,2.5E1,3.2E1,6E0,9E0,9E0,1.6E1,4E0,4E0,3E0,1E0,5.3E1,7E0,2E0,1E0,1.2E1,2.5E1,4.5E1,1.51E2,3E0,5E1,6.9E1,1.7E1,3.2E1,3E0,1E1,1.9E1,1E0,8E0,2.2E1,1.3E1,9.7E1,8.13E2,4E0,1.5E1,1.36E2,2E0,2E0,2E0,1E0,1E0,3E0,1E0,3E0,1E0,6E0,3E0,1.7E1,8E0,2.5E1,7E0,4E0,2E0,2E0,7E0,7E0,2E0,2E0,1.4E1,1E0,3E0],"tree_param":{"num_deleted":"0","num_feature":"5","num_nodes":"113","size_leaf_vector":"1"}},{"base_weights":[1.2891061E-2,-1.0749871E-2,1.3335724E-1,-8.311817E-3,-4.0370747E-1,2.1784064E-1,-1.2957251E-2,2.2947165E-1,-1.12824645E-2,-1.00668564E-1,-6.260049E-1,1.4817932E-1,7.746883E-1,-6.1166304E-1,4.2158153E-2,5.477742E-2,8.272071E-1,-5.373994E-3,-1.6558166E-1,-3.646817E-2,-2.565086E-3,-4.726807E-2,-2.111178E-1,6.219058E-1,8.5082896E-2,1.8651855E0,1.741048E-1,-3.5892066E-1,-2.7368012E-1,-1.5826249E-1,2.817261E-1,1.4236124E-1,-6.565569E-2,3.193237E-1,1.733873E-2,1.7399162E-2,-4.798592E-2,-3.5691777E-1,1.4297421E-1,1.8531355E0,1.7003551E-1,5.233868E-2,9.914532E-1,3.2332054E-1,2.4172673E0,9.075615E-1,-2.1003403E-1,2.8586825E-2,-1.2009128E-1,-8.4585585E-2,-8.633791E-1,5.2703327E-1,1.7226376E-1,-8.605055E-3,5.0198182E-2,-3.8656883E-2,-4.3812636E-3,2.815365E-3,1.5786877E-1,-1.2000943E-2,-1.7553008E-1,-1.9699918E-1,-5.315891E-2,-1.4438443E-1,1.1044026E-1,1.6090071E-1,1.0680503E0,2.1152827E-1,-1.15883306E-1,7.912289E-3,3.7137267E-1,1.10892296E-1,3.8483432E-1,2.3756864E-2,1.2173739E-1,8.157891E-1,1.813724E-1,9.167397E-2,4.973232E-1,2.573595E-2,-2.0256343E-1,1.6996337E-2,-4.132265E-3,-6.481748E-2,9.186773E-2,-1.0433825E-1,-3.2735133E-1,4.646154E-3,1.8807994E-1],"categories":[],"categories_nodes":[],"categories_segments":[],"categories_sizes":[],"default_left":[0,0,0,0,0,0,0,0,0,0,0,0,0,0,0,0,0,0,0,0,0,0,0,0,0,0,0,0,0,0,0,0,0,0,0,0,0,0,0,0,0,0,0,0,0,0,0,0,0,0,0,0,0,0,0,0,0,0,0,0,0,0,0,0,0,0,0,0,0,0,0,0,0,0,0,0,0,0,0,0,0,0,0,0,0,0,0,0,0],"id":12,"left_children":[1,3,5,7,9,11,13,15,17,19,21,23,25,27,29,31,33,35,37,-1,-1,-1,-1,39,41,43,45,-1,47,49,51,53,55,-1,-1,57,59,61,63,65,67,69,71,73,75,77,79,81,-1,83,85,-1,87,-1,-1,-1,-1,-1,-1,-1,-1,-1,-1,-1,-1,-1,-1,-1,-1,-1,-1,-1,-1,-1,-1,-1,-1,-1,-1,-1,-1,-1,-1,-1,-1,-1,-1,-1,-1],"loss_changes":[4.982468E0,1.3982742E0,3.5504708E0,1.0303586E0,5.4326403E-1,6.945122E0,3.5235653E0,1.8342644E0,1.3100948E0,8.583296E-3,7.116103E-2,4.8192296E0,1.2773955E1,1.4512553E0,4.749994E0,1.6756672E-1,6.685147E-1,1.3458204E0,3.1800382E0,0E0,0E0,0E0,0E0,1.0255667E1,4.2514744E0,5.1770973E0,4.1351075E0,0E0,2.793634E-1,2.732314E0,6.9631863E0,4.3232307E-2,2.0703537E-2,0E0,0E0,3.6816416E0,2.0475364E0,1.6613774E0,3.1288815E0,9.329651E0,4.7372656E0,4.307697E0,4.315877E-1,2.8266579E-2,1.0934162E0,1.7514067E0,1.4340142E0,4.3472927E-3,0E0,2.6352134E0,2.0772791E-1,0E0,3.0553951E0,0E0,0E0,0E0,0E0,0E0,0E0,0E0,0E0,0E0,0E0,0E0,0E0,0E0,0E0,0E0,0E0,0E0,0E0,0E0,0E0,0E0,0E0,0E0,0E0,0E0,0E0,0E0,0E0,0E0,0E0,0E0,0E0,0E0,0E0,0E0,0E0],"parents":[2147483647,0,0,1,1,2,2,3,3,4,4,5,5,6,6,7,7,8,8,9,9,10,10,11,11,12,12,13,13,14,14,15,15,16,16,17,17,18,18,23,23,24,24,25,25,26,26,28,28,29,29,30,30,31,31,32,32,35,35,36,36,37,37,38,38,39,39,40,40,41,41,42,42,43,43,44,44,45,45,46,46,47,47,49,49,50,50,52,52],"right_children":[2,4,6,8,10,12,14,16,18,20,22,24,26,28,30,32,34,36,38,-1,-1,-1,-1,40,42,44,46,-1,48,50,52,54,56,-1,-1,58,60,62,64,66,68,70,72,74,76,78,80,82,-1,84,86,-1,88,-1,-1,-1,-1,-1,-1,-1,-1,-1,-1,-1,-1,-1,-1,-1,-1,-1,-1,-1,-1,-1,-1,-1,-1,-1,-1,-1,-1,-1,-1,-1,-1,-1,-1,-1,-1],"split_conditions":[2.5666666E0,2.09E1,1.7713316E1,-8.613E0,5.966667E-1,1.725373E1,6.1999947E-2,1.28E0,2.1166668E0,5.1E-1,4.3941982E1,2.7466667E0,1E-1,2.83E0,1.4E0,1.405845E1,1.2229406E1,2.5614124E2,1.0000001E0,-3.646817E-2,-2.565086E-3,-4.726807E-2,-2.111178E-1,1.1753877E1,1.467E1,2.134917E0,2.71825E0,-3.5892066E-1,3.0633333E0,9.000001E-1,2.001583E0,-1.0617166E1,7.666667E-2,3.193237E-1,1.733873E-2,2E0,2E0,2.2733333E0,2.2333333E0,2.71E0,2.6533334E0,1.6300001E1,1E-1,2.9233332E0,8.714083E0,2.0536666E0,8E-1,2.9233332E0,-1.2009128E-1,8.843333E0,5.66E0,5.2703327E-1,1.3074502E1,-8.605055E-3,5.0198182E-2,-3.8656883E-2,-4.3812636E-3,2.815365E-3,1.5786877E-1,-1.2000943E-2,-1.7553008E-1,-1.9699918E-1,-5.315891E-2,-1.4438443E-1,1.1044026E-1,1.6090071E-1,1.0680503E0,2.1152827E-1,-1.15883306E-1,7.912289E-3,3.7137267E-1,1.10892296E-1,3.8483432E-1,2.3756864E-2,1.2173739E-1,8.157891E-1,1.813724E-1,9.167397E-2,4.973232E-1,2.573595E-2,-2.0256343E-1,1.6996337E-2,-4.132265E-3,-6.481748E-2,9.186773E-2,-1.0433825E-1,-3.2735133E-1,4.646154E-3,1.8807994E-1],"split_indices":[0,2,3,1,0,3,1,0,0,0,4,0,2,0,2,3,3,4,2,0,0,0,0,3,0,1,1,0,0,2,1,1,0,0,0,0,0,0,0,0,0,2,2,0,1,1,2,0,0,0,0,0,1,0,0,0,0,0,0,0,0,0,0,0,0,0,0,0,0,0,0,0,0,0,0,0,0,0,0,0,0,0,0,0,0,0,0,0,0],"split_type":[0,0,0,0,0,0,0,0,0,0,0,0,0,0,0,0,0,0,0,0,0,0,0,0,0,0,0,0,0,0,0,0,0,0,0,0,0,0,0,0,0,0,0,0,0,0,0,0,0,0,0,0,0,0,0,0,0,0,0,0,0,0,0,0,0,0,0,0,0,0,0,0,0,0,0,0,0,0,0,0,0,0,0,0,0,0,0,0,0],"sum_hessian":[1.748E3,1.462E3,2.86E2,1.454E3,8E0,1.81E2,1.05E2,1.7E1,1.437E3,4E0,4E0,1.62E2,1.9E1,8E0,9.7E1,1.4E1,3E0,1.385E3,5.2E1,3E0,1E0,1E0,3E0,1.8E1,1.44E2,6E0,1.3E1,2E0,6E0,5.3E1,4.4E1,8E0,6E0,2E0,1E0,9.03E2,4.82E2,3.2E1,2E1,4E0,1.4E1,1.4E2,4E0,2E0,4E0,4E0,9E0,2E0,4E0,4.9E1,4E0,2E0,4.2E1,1E0,7E0,2E0,4E0,8.9E2,1.3E1,4.76E2,6E0,1.1E1,2.1E1,5E0,1.5E1,3E0,1E0,7E0,7E0,1.38E2,2E0,2E0,2E0,1E0,1E0,3E0,1E0,3E0,1E0,6E0,3E0,1E0,1E0,3.7E1,1.2E1,2E0,2E0,3.2E1,1E1],"tree_param":{"num_deleted":"0","num_feature":"5","num_nodes":"89","size_leaf_vector":"1"}},{"base_weights":[1.0927834E-2,-7.7116136E-3,1.0590548E-1,-4.7780853E-3,-2.0891967E-1,8.297437E-1,9.274259E-2,-7.211179E-3,4.325595E-1,3.4393954E-1,-5.7559764E-1,3.43894E-1,7.097784E-2,7.958467E-2,2.4252173E-1,-3.9446328E-2,1.3805533E-2,5.654258E-1,-7.462567E-2,8.933246E-4,2.3175721E-1,-2.1158949E-1,-2.2701696E-1,1.7425582E-1,-2.5650235E-2,1.5928836E-1,-5.564851E-2,4.3941692E-1,5.317009E-3,4.0949017E-2,6.1416453E-1,1.4184433E-1,-1.8805379E-1,1.3634277E-2,-3.0649498E-1,4.4205256E-2,4.334548E-1,-4.872109E-2,2.9709816E-1,-9.996031E-4,1.1560054E-1,-4.9362024E-3,-5.350469E-2,2.3338029E-1,-1.1597061E-2,2.2945901E-4,1.16832495E-1,2.034843E-1,4.403737E-2,-1.2699735E-1,1.1295433E-1,-1.12275094E-1,-1.5484357E-2,-1.8393376E-1,3.2618683E-2,2.5350827E-1,-3.302024E-2,-1.781871E-1,4.9142414E-3],"categories":[],"categories_nodes":[],"categories_segments":[],"categories_sizes":[],"default_left":[0,0,0,0,0,0,0,0,0,0,0,0,0,0,0,0,0,0,0,0,0,0,0,0,0,0,0,0,0,0,0,0,0,0,0,0,0,0,0,0,0,0,0,0,0,0,0,0,0,0,0,0,0,0,0,0,0,0,0],"id":13,"left_children":[1,3,5,7,9,11,13,15,17,19,21,-1,-1,23,-1,25,27,29,-1,31,-1,-1,33,35,37,39,41,43,45,-1,47,-1,49,-1,51,53,55,57,-1,-1,-1,-1,-1,-1,-1,-1,-1,-1,-1,-1,-1,-1,-1,-1,-1,-1,-1,-1,-1],"loss_changes":[3.0971253E0,8.625367E-1,2.6575258E0,1.5385915E0,4.4551177E0,6.676583E-1,2.6005712E0,9.7340125E-1,8.6483777E-1,1.3225285E0,4.2762995E-1,0E0,0E0,2.7840657E0,0E0,1.8345675E0,3.1408103E0,6.2506676E-2,0E0,6.2392336E-1,0E0,0E0,1.22204185E-1,4.9360585E0,3.165699E0,1.5819557E0,2.5218866E0,2.7812889E0,1.4929991E0,0E0,8.023214E-2,0E0,8.2351947E-1,0E0,4.9761295E-2,4.2655067E0,1.1054258E1,4.659691E0,0E0,0E0,0E0,0E0,0E0,0E0,0E0,0E0,0E0,0E0,0E0,0E0,0E0,0E0,0E0,0E0,0E0,0E0,0E0,0E0,0E0],"parents":[2147483647,0,0,1,1,2,2,3,3,4,4,5,5,6,6,7,7,8,8,9,9,10,10,13,13,15,15,16,16,17,17,19,19,22,22,23,23,24,24,25,25,26,26,27,27,28,28,30,30,32,32,34,34,35,35,36,36,37,37],"right_children":[2,4,6,8,10,12,14,16,18,20,22,-1,-1,24,-1,26,28,30,-1,32,-1,-1,34,36,38,40,42,44,46,-1,48,-1,50,-1,52,54,56,58,-1,-1,-1,-1,-1,-1,-1,-1,-1,-1,-1,-1,-1,-1,-1,-1,-1,-1,-1,-1,-1],"split_conditions":[2.5666666E0,2.3633332E0,8.311245E0,2.3333333E0,1.3910169E1,1.5364083E1,2.2626581E1,1.5472672E1,1.725783E1,1E-1,3.1000001E0,3.43894E-1,7.097784E-2,9.541166E0,2.4252173E-1,-4.8442497E0,1.5629971E1,-4.604667E0,-7.462567E-2,-8.613E0,2.3175721E-1,-2.1158949E-1,2.7449992E-1,5.1745E0,1.4500002E1,6.466667E-1,8.266667E-1,5.259916E0,2.0764084E1,4.0949017E-2,1.7122416E1,1.4184433E-1,1.698075E1,1.3634277E-2,1.4184914E1,1.0233123E1,7E-1,1.1014083E1,2.9709816E-1,-9.996031E-4,1.1560054E-1,-4.9362024E-3,-5.350469E-2,2.3338029E-1,-1.1597061E-2,2.2945901E-4,1.16832495E-1,2.034843E-1,4.403737E-2,-1.2699735E-1,1.1295433E-1,-1.12275094E-1,-1.5484357E-2,-1.8393376E-1,3.2618683E-2,2.5350827E-1,-3.302024E-2,-1.781871E-1,4.9142414E-3],"split_indices":[0,0,3,0,3,1,1,3,1,2,2,0,0,1,0,1,3,1,0,1,0,0,1,1,2,0,0,1,1,0,1,0,1,0,1,3,2,1,0,0,0,0,0,0,0,0,0,0,0,0,0,0,0,0,0,0,0,0,0],"split_type":[0,0,0,0,0,0,0,0,0,0,0,0,0,0,0,0,0,0,0,0,0,0,0,0,0,0,0,0,0,0,0,0,0,0,0,0,0,0,0,0,0,0,0,0,0,0,0,0,0,0,0,0,0,0,0,0,0,0,0],"sum_hessian":[1.748E3,1.462E3,2.86E2,1.442E3,2E1,4E0,2.82E2,1.435E3,7E0,8E0,1.2E1,2E0,2E0,2.78E2,4E0,5.66E2,8.69E2,6E0,1E0,5E0,3E0,8E0,4E0,1.46E2,1.32E2,4.2E1,5.24E2,1.6E1,8.53E2,1E0,5E0,1E0,4E0,1E0,3E0,9.8E1,4.8E1,1.3E2,2E0,2.5E1,1.7E1,3.98E2,1.26E2,9E0,7E0,8.44E2,9E0,4E0,1E0,3E0,1E0,2E0,1E0,8E0,9E1,2.7E1,2.1E1,1.3E1,1.17E2],"tree_param":{"num_deleted":"0","num_feature":"5","num_nodes":"59","size_leaf_vector":"1"}},{"base_weights":[8.503164E-3,-9.635471E-3,6.281683E-2,-7.860452E-3,-3.9468783E-1,5.0698765E-2,4.887833E-1,-6.404853E-3,-3.2241532E-1,-2.1423225E-1,-1.8798243E-1,9.2606224E-2,-2.1751603E-1,5.819437E-1,-8.039718E-2,-1.0687821E-3,-7.12354E-2,-1.170765E-1,-1.466186E-1,3.960675E-3,-7.247375E-2,4.0290868E-1,5.164399E-2,-2.8830376E-1,1.9991745E-1,2.422355E-1,2.8234395E-1,-1.0330106E-2,1.6968544E-1,-8.030718E-2,1.2266983E-1,1.7046512E-3,-4.7967035E-2,2.4220756E-1,1.9091929E0,1.0776706E-1,-8.9213096E-2,-3.8640466E-1,-8.443935E-3,1.4180804E-2,3.456706E-1,-1.605893E-1,4.3548328E-1,5.46081E-4,-1.592392E-2,2.5455145E-2,2.84201E-1,-3.1996373E-2,3.0050522E-2,-1.915375E-2,1.6543597E-1,9.0294975E-1,1.617107E-1,6.2033113E-2,-1.8912133E-2,-4.218345E-2,1.2355194E-1,-5.6116756E-2,-1.3599287E-1,1.0016363E-1,-5.362827E-2,-2.931905E-2,3.6409453E-2,1.3328455E-1,-7.3161367E-3,-8.572022E-2,1.3455034E-2,5.1455215E-2,1.6628644E-1],"categories":[],"categories_nodes":[],"categories_segments":[],"categories_sizes":[],"default_left":[0,0,0,0,0,0,0,0,0,0,0,0,0,0,0,0,0,0,0,0,0,0,0,0,0,0,0,0,0,0,0,0,0,0,0,0,0,0,0,0,0,0,0,0,0,0,0,0,0,0,0,0,0,0,0,0,0,0,0,0,0,0,0,0,0,0,0,0,0],"id":14,"left_children":[1,3,5,7,9,11,13,15,17,-1,19,21,23,25,-1,27,29,31,-1,-1,-1,33,35,37,39,41,-1,43,45,47,-1,-1,-1,49,51,53,55,57,59,61,63,65,67,-1,-1,-1,-1,-1,-1,-1,-1,-1,-1,-1,-1,-1,-1,-1,-1,-1,-1,-1,-1,-1,-1,-1,-1,-1,-1],"loss_changes":[1.7236779E0,8.936171E-1,2.236127E0,5.9636545E-1,2.6191497E-1,4.8197093E0,1.001972E0,4.5033824E-1,1.4768481E-1,0E0,5.710359E-2,4.682144E0,1.7714884E0,1.1142862E0,0E0,1.9057707E0,4.6404958E-1,2.1931496E-2,0E0,0E0,0E0,9.946228E0,2.602563E0,1.369462E0,2.3874342E-1,6.14849E-1,0E0,5.9379816E-1,4.0098825E0,4.7667933E-1,0E0,0E0,0E0,3.8210354E0,4.409788E0,3.9872725E0,2.4787214E0,4.0868998E-1,8.7593144E-1,7.183634E-2,1.9329399E-1,8.99442E-2,6.1732054E-2,0E0,0E0,0E0,0E0,0E0,0E0,0E0,0E0,0E0,0E0,0E0,0E0,0E0,0E0,0E0,0E0,0E0,0E0,0E0,0E0,0E0,0E0,0E0,0E0,0E0,0E0],"parents":[2147483647,0,0,1,1,2,2,3,3,4,4,5,5,6,6,7,7,8,8,10,10,11,11,12,12,13,13,15,15,16,16,17,17,21,21,22,22,23,23,24,24,25,25,27,27,28,28,29,29,33,33,34,34,35,35,36,36,37,37,38,38,39,39,40,40,41,41,42,42],"right_children":[2,4,6,8,10,12,14,16,18,-1,20,22,24,26,-1,28,30,32,-1,-1,-1,34,36,38,40,42,-1,44,46,48,-1,-1,-1,50,52,54,56,58,60,62,64,66,68,-1,-1,-1,-1,-1,-1,-1,-1,-1,-1,-1,-1,-1,-1,-1,-1,-1,-1,-1,-1,-1,-1,-1,-1,-1,-1],"split_conditions":[1.6333333E0,3.3510952E1,2.1220333E1,1.61E0,1.9367131E2,1.7534918E1,7.096667E0,6.6E0,1E-1,-2.1423225E-1,3.5666668E-1,1.1808878E1,2.5826144E2,1.5141414E1,-8.039718E-2,4.6E0,2.0764084E1,2.5974166E0,-1.466186E-1,3.960675E-3,-7.247375E-2,4.2E0,2.633613E2,2.0428667E1,1.8566168E1,2.1826582E1,2.8234395E-1,1E0,1.1566666E0,2.7804028E1,1.2266983E-1,1.7046512E-3,-4.7967035E-2,2.9203331E0,2.7466667E0,2E0,3.4366058E2,1.4249365E2,3.5466666E0,3.6733334E0,4.5933332E0,1.7233334E0,2.2626581E1,5.46081E-4,-1.592392E-2,2.5455145E-2,2.84201E-1,-3.1996373E-2,3.0050522E-2,-1.915375E-2,1.6543597E-1,9.0294975E-1,1.617107E-1,6.2033113E-2,-1.8912133E-2,-4.218345E-2,1.2355194E-1,-5.6116756E-2,-1.3599287E-1,1.0016363E-1,-5.362827E-2,-2.931905E-2,3.6409453E-2,1.3328455E-1,-7.3161367E-3,-8.572022E-2,1.3455034E-2,5.1455215E-2,1.6628644E-1],"split_indices":[0,3,1,0,4,1,0,2,2,0,0,3,4,3,0,2,1,1,0,0,0,2,4,1,1,1,0,2,0,3,0,0,0,1,0,2,4,4,0,0,0,0,1,0,0,0,0,0,0,0,0,0,0,0,0,0,0,0,0,0,0,0,0,0,0,0,0,0,0],"split_type":[0,0,0,0,0,0,0,0,0,0,0,0,0,0,0,0,0,0,0,0,0,0,0,0,0,0,0,0,0,0,0,0,0,0,0,0,0,0,0,0,0,0,0,0,0,0,0,0,0,0,0,0,0,0,0,0,0,0,0,0,0,0,0,0,0,0,0,0,0],"sum_hessian":[1.748E3,1.311E3,4.37E2,1.306E3,5E0,4.26E2,1.1E1,1.301E3,5E0,1E0,4E0,3.69E2,5.7E1,1E1,1E0,1.203E3,9.8E1,3E0,2E0,1E0,3E0,4.2E1,3.27E2,4.9E1,8E0,6E0,4E0,1.142E3,6.1E1,9.7E1,1E0,1E0,2E0,3.9E1,3E0,2.34E2,9.3E1,3.6E1,1.3E1,4E0,4E0,2E0,4E0,8.9E2,2.52E2,5.6E1,5E0,8.5E1,1.2E1,2E1,1.9E1,1E0,2E0,1.48E2,8.6E1,8.5E1,8E0,1E1,2.6E1,4E0,9E0,2E0,2E0,3E0,1E0,1E0,1E0,2E0,2E0],"tree_param":{"num_deleted":"0","num_feature":"5","num_nodes":"69","size_leaf_vector":"1"}},{"base_weights":[6.8725846E-3,1.2575382E-3,1.2878297E-1,-2.264251E-2,3.4839418E-2,4.7206673E-1,1.60512E-2,-9.542225E-3,-5.216437E-1,1.9860359E-2,3.259064E-1,-2.2470611E-1,5.8151716E-1,1.5218443E-1,-4.7735745E-1,-1.4350192E-2,2.0475222E-1,-3.2155207E-1,-9.902289E-1,7.90742E-2,-2.7822131E-2,1.1757239E0,1.3884394E-1,2.1585338E-1,8.524628E-1,-2.0409618E-1,4.012354E-1,-7.088717E-1,-8.911216E-2,-5.6290373E-2,1.490458E-2,-3.7908472E-2,4.7546983E-1,-6.6135675E-1,2.2834897E-1,-4.3989792E-1,-5.065247E-1,2.4718495E-2,1.2604545E0,8.094978E-2,-4.5179192E-2,1.949362E0,-2.4770148E-1,2.7484745E-1,-4.2831078E-1,-3.7340212E-1,5.727148E-1,-8.816178E-2,1.012486E0,5.841963E-1,-7.7830756E-1,6.629215E-1,-4.7852585E-1,-1.3985121E-1,-1.0223138E0,8.535186E-2,-5.9304643E-2,-2.120865E-2,4.881966E-2,1.594659E-1,1.0187711E-3,7.152309E-2,-2.5410607E-2,6.967312E-2,2.8967488E-1,1.14546634E-1,-2.372707E-1,3.5808936E-1,-2.402017E-2,-3.202887E-2,-1.7393231E-1,1.8173825E-2,-5.1679E-2,1.1893784E0,1.2251252E-1,1.3938437E-1,-7.1877157E-3,-3.430001E-2,-1.4702671E-3,2.5542155E-1,7.8648496E-1,-1.5359846E-1,4.2132784E-2,4.158152E-2,3.5470277E-1,-2.6670027E-1,7.285345E-3,6.6864684E-2,-1.9393732E-1,-8.074236E-3,2.0940705E-1,1.05724715E-1,3.452197E-1,2.6915956E-1,-9.406812E-3,-3.2321227E-1,2.6750816E-2,1.3463226E-1,5.60879E-1,-1.2015975E-2,-1.6347873E-1,4.7016766E-2,-8.7285E-2,-3.7164044E-1,-2.345449E-2,-3.1288147E-3,4.1537154E-2],"categories":[],"categories_nodes":[],"categories_segments":[],"categories_sizes":[],"default_left":[0,0,0,0,0,0,0,0,0,0,0,0,0,0,0,0,0,0,0,0,0,0,0,0,0,0,0,0,0,0,0,0,0,0,0,0,0,0,0,0,0,0,0,0,0,0,0,0,0,0,0,0,0,0,0,0,0,0,0,0,0,0,0,0,0,0,0,0,0,0,0,0,0,0,0,0,0,0,0,0,0,0,0,0,0,0,0,0,0,0,0,0,0,0,0,0,0,0,0,0,0,0,0,0,0,0,0],"id":15,"left_children":[1,3,5,7,9,11,13,15,17,19,21,-1,23,25,27,29,31,33,35,37,39,41,43,45,47,49,51,53,55,57,59,61,63,65,67,-1,69,71,73,75,77,79,81,83,85,87,89,-1,91,93,95,97,99,101,103,105,-1,-1,-1,-1,-1,-1,-1,-1,-1,-1,-1,-1,-1,-1,-1,-1,-1,-1,-1,-1,-1,-1,-1,-1,-1,-1,-1,-1,-1,-1,-1,-1,-1,-1,-1,-1,-1,-1,-1,-1,-1,-1,-1,-1,-1,-1,-1,-1,-1,-1,-1],"loss_changes":[1.1970853E0,1.343553E0,2.9722447E0,6.3882637E0,3.0280247E0,2.9748893E0,4.035636E0,9.8586416E-1,2.0255895E0,1.874156E0,5.2417026E0,0E0,1.5993433E0,4.2522964E0,1.1053274E0,1.1468108E0,1.3975673E0,3.7013402E0,8.693013E-1,1.8976412E1,6.9842684E-1,7.0901566E0,2.3546362E0,2.1063957E0,2.1319427E0,9.507615E0,6.76342E0,1.2838678E0,1.3052186E-1,1.2230428E0,3.2744074E0,1.7535308E-1,9.678323E-1,1.9236546E0,2.47724E0,0E0,8.451378E-2,2.016597E0,2.8334805E1,2.0638726E0,8.852009E-1,7.2036743E-1,3.7965763E-1,2.8034644E0,1.2726258E0,7.9535896E-1,4.6961868E-1,0E0,4.157343E-1,1.7621558E0,3.2092705E0,4.84591E0,1.8198586E-1,2.2484615E-1,9.251132E-1,1.6703503E-2,0E0,0E0,0E0,0E0,0E0,0E0,0E0,0E0,0E0,0E0,0E0,0E0,0E0,0E0,0E0,0E0,0E0,0E0,0E0,0E0,0E0,0E0,0E0,0E0,0E0,0E0,0E0,0E0,0E0,0E0,0E0,0E0,0E0,0E0,0E0,0E0,0E0,0E0,0E0,0E0,0E0,0E0,0E0,0E0,0E0,0E0,0E0,0E0,0E0,0E0,0E0],"parents":[2147483647,0,0,1,1,2,2,3,3,4,4,5,5,6,6,7,7,8,8,9,9,10,10,12,12,13,13,14,14,15,15,16,16,17,17,18,18,19,19,20,20,21,21,22,22,23,23,24,24,25,25,26,26,27,27,28,28,29,29,30,30,31,31,32,32,33,33,34,34,36,36,37,37,38,38,39,39,40,40,41,41,42,42,43,43,44,44,45,45,46,46,48,48,49,49,50,50,51,51,52,52,53,53,54,54,55,55],"right_children":[2,4,6,8,10,12,14,16,18,20,22,-1,24,26,28,30,32,34,36,38,40,42,44,46,48,50,52,54,56,58,60,62,64,66,68,-1,70,72,74,76,78,80,82,84,86,88,90,-1,92,94,96,98,100,102,104,106,-1,-1,-1,-1,-1,-1,-1,-1,-1,-1,-1,-1,-1,-1,-1,-1,-1,-1,-1,-1,-1,-1,-1,-1,-1,-1,-1,-1,-1,-1,-1,-1,-1,-1,-1,-1,-1,-1,-1,-1,-1,-1,-1,-1,-1,-1,-1,-1,-1,-1,-1],"split_conditions":[6.9700003E0,5E-1,1.4002582E2,4.5933332E0,4.6933336E0,1.7807504E0,1.339E1,2.0764084E1,3E-1,1.9707729E2,5.0233335E0,-2.2470611E-1,9.9694374E1,1.6981165E1,1.8343504E2,2.1918286E2,1.1566666E0,1.5990646E1,7.9349174E0,1.9367131E2,1.3237039E1,1.7437002E1,5.6E0,1.3074502E1,9.3876505E0,1.2E0,2.4149532E1,1.628972E2,1E-1,3.2666667E0,2.2184917E2,1.5035011E2,1.5182015E1,9.511088E0,1.628972E2,-4.3989792E-1,1.0345333E1,2.3665035E1,1.3910169E1,2.3661668E0,3.7890832E0,4.9E0,4.9E0,4.9E0,5.366667E0,3E-1,1.191812E1,-8.816178E-2,2.6890833E0,2.2678722E2,2.4959866E2,2.3847115E1,2.3661668E0,1.467E1,1.2000002E0,2.1413334E1,-5.9304643E-2,-2.120865E-2,4.881966E-2,1.594659E-1,1.0187711E-3,7.152309E-2,-2.5410607E-2,6.967312E-2,2.8967488E-1,1.14546634E-1,-2.372707E-1,3.5808936E-1,-2.402017E-2,-3.202887E-2,-1.7393231E-1,1.8173825E-2,-5.1679E-2,1.1893784E0,1.2251252E-1,1.3938437E-1,-7.1877157E-3,-3.430001E-2,-1.4702671E-3,2.5542155E-1,7.8648496E-1,-1.5359846E-1,4.2132784E-2,4.158152E-2,3.5470277E-1,-2.6670027E-1,7.285345E-3,6.6864684E-2,-1.9393732E-1,-8.074236E-3,2.0940705E-1,1.05724715E-1,3.452197E-1,2.6915956E-1,-9.406812E-3,-3.2321227E-1,2.6750816E-2,1.3463226E-1,5.60879E-1,-1.2015975E-2,-1.6347873E-1,4.7016766E-2,-8.7285E-2,-3.7164044E-1,-2.345449E-2,-3.1288147E-3,4.1537154E-2],"split_indices":[0,2,4,0,0,1,0,1,2,4,0,0,4,3,4,4,0,3,1,4,3,1,2,1,3,2,3,4,2,0,4,4,3,3,4,0,1,3,3,1,1,0,0,2,0,2,3,0,1,4,4,3,1,0,2,0,0,0,0,0,0,0,0,0,0,0,0,0,0,0,0,0,0,0,0,0,0,0,0,0,0,0,0,0,0,0,0,0,0,0,0,0,0,0,0,0,0,0,0,0,0,0,0,0,0,0,0],"split_type":[0,0,0,0,0,0,0,0,0,0,0,0,0,0,0,0,0,0,0,0,0,0,0,0,0,0,0,0,0,0,0,0,0,0,0,0,0,0,0,0,0,0,0,0,0,0,0,0,0,0,0,0,0,0,0,0,0,0,0,0,0,0,0,0,0,0,0,0,0,0,0,0,0,0,0,0,0,0,0,0,0,0,0,0,0,0,0,0,0,0,0,0,0,0,0,0,0,0,0,0,0,0,0,0,0,0,0],"sum_hessian":[1.748E3,1.672E3,7.6E1,9.77E2,6.95E2,1.8E1,5.8E1,9.53E2,2.4E1,6.62E2,3.3E1,1E0,1.7E1,4.6E1,1.2E1,9.33E2,2E1,1.8E1,6E0,2.95E2,3.67E2,5E0,2.8E1,8E0,9E0,1.9E1,2.7E1,7E0,5E0,3.83E2,5.5E2,1.1E1,9E0,1.1E1,7E0,2E0,4E0,2.83E2,1.2E1,5E1,3.17E2,3E0,2E0,2.3E1,5E0,3E0,5E0,1E0,8E0,8E0,1.1E1,2.1E1,6E0,3E0,4E0,2E0,3E0,3.6E2,2.3E1,1.1E1,5.39E2,1E0,1E1,7E0,2E0,1E0,1E1,1E0,6E0,1E0,3E0,2.4E2,4.3E1,2E0,1E1,1E1,4E1,1.16E2,2.01E2,2E0,1E0,1E0,1E0,2.1E1,2E0,2E0,3E0,1E0,2E0,1E0,4E0,2E0,6E0,5E0,3E0,8E0,3E0,1.9E1,2E0,1E0,5E0,1E0,2E0,3E0,1E0,1E0,1E0],"tree_param":{"num_deleted":"0","num_feature":"5","num_nodes":"107","size_leaf_vector":"1"}},{"base_weights":[6.434907E-3,8.167996E-3,-2.6813573E-1,3.3304937E-2,-8.921362E-3,-4.1478902E-1,9.2204824E-2,2.0399708E-2,2.0539731E-1,-1.0619669E-1,1.0120624E-3,-7.267392E-2,-1.5501451E-1,-3.2793533E-3,5.6798603E-2,3.7922645E-3,1.6394949E-1,1.3436192E0,-4.9465984E-2,-3.2070795E-1,1.6611231E-2,3.7477665E-2,-1.9021694E-2,-3.8402908E-2,5.6996453E-3,-4.2809644E-3,2.8052554E-3,9.289322E-3,-5.3188676E-1,8.704337E-1,8.154079E-2,6.687433E-4,2.417846E0,1.1132988E0,-1.3764107E-1,-6.657965E-1,-1.1171409E-1,7.4465886E-2,-5.3577656E-1,1.18991554E-1,-3.3771742E-2,-2.4116931E-2,1.8401784E-1,7.6151104E-3,-4.7823127E-2,-2.5765172E-1,2.4403526E-2,2.214439E-2,5.723963E-1,4.123996E-1,1.134196E-2,3.3686385E-2,-6.68712E-2,-1.0413954E-2,9.1189927E-1,5.236648E-1,-2.2680335E-2,-6.0319487E-2,7.341032E-2,-6.979053E-2,-2.7223292E-1,-5.6260023E-2,1.3687778E-1,-8.835833E-3,4.376254E-1,-1.7420554E-1,-4.668503E-2,6.913792E-2,3.8805287E-3,-2.7092362E-2,2.3122106E-2,-4.5477217E-3,-4.244636E-2,1.5811723E-2,1.1166052E-1],"categories":[],"categories_nodes":[],"categories_segments":[],"categories_sizes":[],"default_left":[0,0,0,0,0,0,0,0,0,0,0,0,0,0,0,0,0,0,0,0,0,0,0,0,0,0,0,0,0,0,0,0,0,0,0,0,0,0,0,0,0,0,0,0,0,0,0,0,0,0,0,0,0,0,0,0,0,0,0,0,0,0,0,0,0,0,0,0,0,0,0,0,0,0,0],"id":16,"left_children":[1,3,5,7,9,11,13,15,17,19,21,23,-1,25,-1,27,29,31,33,35,37,39,41,-1,-1,-1,-1,43,45,47,49,51,53,55,57,59,61,63,65,67,69,71,73,-1,-1,-1,-1,-1,-1,-1,-1,-1,-1,-1,-1,-1,-1,-1,-1,-1,-1,-1,-1,-1,-1,-1,-1,-1,-1,-1,-1,-1,-1,-1,-1],"loss_changes":[8.344612E-1,7.473267E-1,6.1954194E-1,1.5593177E0,1.0011705E0,2.4141192E-1,3.771604E-2,1.5632789E0,1.4280922E1,2.5343208E0,6.881538E-1,1.7650377E-2,0E0,5.498734E-4,0E0,1.739345E0,3.8880146E0,1.2982082E1,4.3568373E0,2.4498699E0,2.0213056E0,1.9438293E0,6.334351E-1,0E0,0E0,0E0,0E0,1.589675E0,1.2728473E0,5.644908E0,3.4543667E0,1.4980447E-1,7.7307453E0,2.3870132E0,9.949359E-1,1.1496325E0,1.0760211E0,8.242591E0,1.2070417E-2,1.8412383E0,1.1287124E0,6.2238216E-1,3.5104513E-1,0E0,0E0,0E0,0E0,0E0,0E0,0E0,0E0,0E0,0E0,0E0,0E0,0E0,0E0,0E0,0E0,0E0,0E0,0E0,0E0,0E0,0E0,0E0,0E0,0E0,0E0,0E0,0E0,0E0,0E0,0E0,0E0],"parents":[2147483647,0,0,1,1,2,2,3,3,4,4,5,5,6,6,7,7,8,8,9,9,10,10,11,11,13,13,15,15,16,16,17,17,18,18,19,19,20,20,21,21,22,22,27,27,28,28,29,29,30,30,31,31,32,32,33,33,34,34,35,35,36,36,37,37,38,38,39,39,40,40,41,41,42,42],"right_children":[2,4,6,8,10,12,14,16,18,20,22,24,-1,26,-1,28,30,32,34,36,38,40,42,-1,-1,-1,-1,44,46,48,50,52,54,56,58,60,62,64,66,68,70,72,74,-1,-1,-1,-1,-1,-1,-1,-1,-1,-1,-1,-1,-1,-1,-1,-1,-1,-1,-1,-1,-1,-1,-1,-1,-1,-1,-1,-1,-1,-1,-1,-1],"split_conditions":[2.09E1,2.0090652E2,1.8390105E2,1.9367131E2,2.1326042E2,5.1E-1,5.966667E-1,4.6933336E0,1.4113653E1,1.6179985E1,2.5448679E2,3.1E-1,-1.5501451E-1,3.9666668E-1,5.6798603E-2,4.5933332E0,5.0233335E0,5.6333333E-1,7.666667E-2,7.3995E0,3.41E0,7.5640826E0,1.9555746E1,-3.8402908E-2,5.6996453E-3,-4.2809644E-3,2.8052554E-3,1.8518163E2,1.4241629E1,5E-1,1.2557498E0,1.4E-1,1.1159999E1,1.0349165E0,5.8E0,7.866667E-1,1.8766667E0,2.6166666E0,5.66E0,1.7713316E1,2.4062433E2,3.22E0,1.13E0,7.6151104E-3,-4.7823127E-2,-2.5765172E-1,2.4403526E-2,2.214439E-2,5.723963E-1,4.123996E-1,1.134196E-2,3.3686385E-2,-6.68712E-2,-1.0413954E-2,9.1189927E-1,5.236648E-1,-2.2680335E-2,-6.0319487E-2,7.341032E-2,-6.979053E-2,-2.7223292E-1,-5.6260023E-2,1.3687778E-1,-8.835833E-3,4.376254E-1,-1.7420554E-1,-4.668503E-2,6.913792E-2,3.8805287E-3,-2.7092362E-2,2.3122106E-2,-4.5477217E-3,-4.244636E-2,1.5811723E-2,1.1166052E-1],"split_indices":[2,4,4,4,4,0,0,0,3,3,4,0,0,0,0,0,0,0,0,1,0,1,1,0,0,0,0,4,3,2,1,0,3,1,2,0,0,0,0,3,4,0,0,0,0,0,0,0,0,0,0,0,0,0,0,0,0,0,0,0,0,0,0,0,0,0,0,0,0,0,0,0,0,0,0],"split_type":[0,0,0,0,0,0,0,0,0,0,0,0,0,0,0,0,0,0,0,0,0,0,0,0,0,0,0,0,0,0,0,0,0,0,0,0,0,0,0,0,0,0,0,0,0,0,0,0,0,0,0,0,0,0,0,0,0,0,0,0,0,0,0,0,0,0,0,0,0,0,0,0,0,0,0],"sum_hessian":[1.748E3,1.738E3,1E1,7.03E2,1.035E3,7E0,3E0,6.55E2,4.8E1,9.5E1,9.4E2,2E0,5E0,2E0,1E0,5.88E2,6.7E1,8E0,4E1,3.4E1,6.1E1,3.33E2,6.07E2,1E0,1E0,1E0,1E0,5.83E2,5E0,6E0,6.1E1,4E0,4E0,2E0,3.8E1,1.2E1,2.2E1,5.6E1,5E0,1.55E2,1.78E2,5.93E2,1.4E1,5.33E2,5E1,3E0,2E0,4E0,2E0,1E0,6E1,3E0,1E0,1E0,3E0,1E0,1E0,3.3E1,5E0,5E0,7E0,2E1,2E0,5.3E1,3E0,4E0,1E0,7.5E1,8E1,1.18E2,6E1,5.52E2,4.1E1,9E0,5E0],"tree_param":{"num_deleted":"0","num_feature":"5","num_nodes":"75","size_leaf_vector":"1"}},{"base_weights":[5.6998804E-3,9.869823E-4,9.1557E-2,3.8440342E-3,-3.349912E-1,1.2552404E-1,-3.3397943E-1,3.0265347E-4,2.7786505E-1,-5.4124224E-1,1.4450908E-1,7.229291E-2,9.627636E-1,1.2469554E-2,-4.0349773E-1,2.3293796E-3,-2.1752302E-1,4.119511E-1,-6.6396827E-1,-3.0722457E-1,-1.8801355E-1,7.6020956E-2,-3.7664175E-3,1.3369085E-1,-3.30575E-1,1.1400286E-1,4.4718096E-1,-1.3861938E-1,-1.6599549E-2,-1.0657541E-1,5.668102E-3,-3.151377E-1,-8.2994804E-2,1.0709212E0,-6.1691552E-2,4.217981E-2,-3.4096554E-1,6.818994E-2,-3.0413294E-1,9.060658E-2,8.327008E-1,-4.309909E-1,1.010376E-1,6.209693E-2,-1.0795642E-2,-1.1388812E-2,-8.651451E-2,6.2920623E-3,-4.49084E-3,-4.535023E-2,1.2048741E-1,6.1712337E-1,2.034346E-2,-1.1645646E-1,4.502409E-2,6.2520504E-2,-3.1835034E-2,-2.45106E-2,-1.01794556E-1,8.219507E-2,-1.8412445E-2,4.64618E-2,4.299278E-1,-2.0051377E-1,-7.01311E-2],"categories":[],"categories_nodes":[],"categories_segments":[],"categories_sizes":[],"default_left":[0,0,0,0,0,0,0,0,0,0,0,0,0,0,0,0,0,0,0,0,0,0,0,0,0,0,0,0,0,0,0,0,0,0,0,0,0,0,0,0,0,0,0,0,0,0,0,0,0,0,0,0,0,0,0,0,0,0,0,0,0,0,0,0,0],"id":17,"left_children":[1,3,5,7,9,11,13,15,17,19,21,23,25,-1,27,29,31,33,35,-1,37,-1,-1,39,41,43,-1,-1,-1,45,47,-1,49,51,53,-1,-1,55,57,59,61,63,-1,-1,-1,-1,-1,-1,-1,-1,-1,-1,-1,-1,-1,-1,-1,-1,-1,-1,-1,-1,-1,-1,-1],"loss_changes":[7.0761776E-1,1.5937736E0,1.3572557E0,1.5972152E0,1.4627784E0,3.718612E0,1.9952196E-1,7.183418E-1,2.9255433E0,1.5129867E0,8.869802E-2,2.047751E0,2.0701146E0,0E0,9.677893E-2,5.867318E-1,1.5936182E0,5.996278E0,1.3004746E0,0E0,2.2899014E-1,0E0,0E0,2.0628116E0,8.823111E-1,4.9289476E-2,0E0,0E0,0E0,5.8781487E-1,4.946458E-1,0E0,5.232416E-1,7.774291E0,8.87973E-1,0E0,0E0,9.543446E-2,1.1405379E-2,1.9119682E0,1.4059029E0,3.1193137E-1,0E0,0E0,0E0,0E0,0E0,0E0,0E0,0E0,0E0,0E0,0E0,0E0,0E0,0E0,0E0,0E0,0E0,0E0,0E0,0E0,0E0,0E0,0E0],"parents":[2147483647,0,0,1,1,2,2,3,3,4,4,5,5,6,6,7,7,8,8,9,9,10,10,11,11,12,12,14,14,15,15,16,16,17,17,18,18,20,20,23,23,24,24,25,25,29,29,30,30,32,32,33,33,34,34,37,37,38,38,39,39,40,40,41,41],"right_children":[2,4,6,8,10,12,14,16,18,20,22,24,26,-1,28,30,32,34,36,-1,38,-1,-1,40,42,44,-1,-1,-1,46,48,-1,50,52,54,-1,-1,56,58,60,62,64,-1,-1,-1,-1,-1,-1,-1,-1,-1,-1,-1,-1,-1,-1,-1,-1,-1,-1,-1,-1,-1,-1,-1],"split_conditions":[5.7599998E0,5.366667E0,2.4315327E1,4.9E0,2.1326042E2,2.3847115E1,6.4466667E0,4.5933332E0,8.2E0,4E-1,2E-1,2.1829777E1,7.443333E0,1.2469554E-2,2.510271E2,1.5847559E1,1.5745E0,1.8128822E2,5.0233335E0,-3.0722457E-1,1.5629971E1,7.6020956E-2,-3.7664175E-3,2.1322214E1,1.3922418E1,6.4466667E0,4.4718096E-1,-1.3861938E-1,-1.6599549E-2,1.1479927E1,9.172417E0,-3.151377E-1,9.299999E0,1.5064082E1,2E-1,4.217981E-2,-3.4096554E-1,1.2312E1,-1.60675E0,6.403666E0,5E-1,1.6648796E2,1.010376E-1,6.209693E-2,-1.0795642E-2,-1.1388812E-2,-8.651451E-2,6.2920623E-3,-4.49084E-3,-4.535023E-2,1.2048741E-1,6.1712337E-1,2.034346E-2,-1.1645646E-1,4.502409E-2,6.2520504E-2,-3.1835034E-2,-2.45106E-2,-1.01794556E-1,8.219507E-2,-1.8412445E-2,4.64618E-2,4.299278E-1,-2.0051377E-1,-7.01311E-2],"split_indices":[0,0,3,0,4,3,0,0,2,2,2,3,0,0,4,4,1,4,0,0,3,0,0,3,1,0,0,0,0,4,1,0,2,1,2,0,0,1,1,1,2,4,0,0,0,0,0,0,0,0,0,0,0,0,0,0,0,0,0,0,0,0,0,0,0],"split_type":[0,0,0,0,0,0,0,0,0,0,0,0,0,0,0,0,0,0,0,0,0,0,0,0,0,0,0,0,0,0,0,0,0,0,0,0,0,0,0,0,0,0,0,0,0,0,0,0,0,0,0,0,0,0,0,0,0,0,0,0,0,0,0,0,0],"sum_hessian":[1.748E3,1.658E3,9E1,1.645E3,1.3E1,8.4E1,6E0,1.625E3,2E1,9E0,4E0,8E1,4E0,1E0,5E0,1.611E3,1.4E1,1.8E1,2E0,3E0,6E0,2E0,2E0,7E1,1E1,2E0,2E0,4E0,1E0,4.7E1,1.564E3,1E0,1.3E1,7E0,1.1E1,1E0,1E0,2E0,4E0,6.7E1,3E0,9E0,1E0,1E0,1E0,3.5E1,1.2E1,8.98E2,6.66E2,1.2E1,1E0,3E0,4E0,4E0,7E0,1E0,1E0,1E0,3E0,3E1,3.7E1,2E0,1E0,3E0,6E0],"tree_param":{"num_deleted":"0","num_feature":"5","num_nodes":"65","size_leaf_vector":"1"}},{"base_weights":[4.176792E-3,1.5003309E-3,1.3149007E-1,4.794339E-3,-2.5205678E-1,5.754701E-1,